34 128
34 -0.10397056 -0.15160319 0.0875623 0.13229616 0.19678424 0.048989084 0.17374298 -0.08999705 -0.07143164 0.05989955 -0.14837283 0.018957775 -0.05861316 -0.009693929 0.15905109 -0.112466216 0.022131793 -0.040679086 0.056357097 0.1967869 0.12240931 -0.14008404 0.101078466 0.18567014 -0.044661812 -0.14538477 0.06158515 0.07146914 -0.14413072 0.008257651 -0.00679834 0.058489747 0.286453 -0.0015048627 -0.01590374 0.11524888 0.08527215 0.054527316 0.029290522 -0.11743135 0.0468792 0.004405655 0.08371697 0.17089844 0.071948804 0.080139175 0.013106225 -0.07824006 0.075442486 0.068276204 -0.122137815 -0.11896972 -0.14408897 -0.012989868 -0.041162845 -0.013594134 0.065115675 0.00232253 0.17441244 0.16550113 -0.104105935 -0.09540051 0.21809779 -0.09541705 0.052309897 -0.09792137 0.06551813 0.03418899 -0.032032598 -0.041239295 0.029698206 0.01979726 0.25073627 -0.12022847 0.10832482 -0.0018696424 -0.005407488 -0.101899594 -0.27706143 -0.013475661 -0.03566941 0.15059966 0.2214637 0.058049724 0.009163536 0.031265825 -0.072053775 0.07445927 0.05016628 -0.004592478 0.033218738 -0.079577245 0.11185715 0.049644962 -0.0035591347 -0.10512577 0.08094747 -0.14433981 -0.15845989 -0.002327232 -0.0019012467 0.08262558 -0.032166418 -0.058014438 0.1313643 -0.0025080016 -0.12367129 -0.13609138 0.10157635 -0.051847678 -0.18327457 -0.022596467 -0.05993945 -0.11880559 -0.21510041 -0.08117754 0.05104556 0.12643827 0.038298633 -0.2073745 0.012880595 0.13122998 0.17382497 0.035210267 -0.01609905 -0.054825492 0.112135775 0.004031121
1 -0.14473857 -0.13491325 0.034822397 0.065573044 0.17054655 0.0025153689 0.21505249 -0.10810115 0.020763597 0.060373776 -0.11817439 -0.087211736 -0.002107154 -0.086502805 0.14007103 -0.029352449 0.0814697 0.055139013 0.0122250365 0.12516774 0.128685 -0.13194396 0.057552062 0.19217935 -0.025696533 -0.12370295 0.036266122 0.1062775 -0.24213901 0.012011574 0.024551803 0.05814963 0.22973417 0.02792007 0.025188949 0.067825586 0.06767738 0.060168535 -0.003691036 -0.14368047 0.016519738 -0.05247372 0.13244925 0.20231755 0.034540508 0.048900608 0.09770567 -0.12712358 0.028714014 0.055024195 -0.20339036 -0.016043665 -0.08344749 -0.016459923 -0.12542586 0.07865551 0.034765426 0.020776536 0.23062938 0.02132775 -0.14639984 -0.016633263 0.20395254 -0.1280994 0.08566656 -0.022857457 0.077059075 -0.0060463734 -0.07290343 -0.04422856 -0.06704117 -0.0452735 0.18730398 0.012116297 0.07080326 0.065238304 0.009965685 -0.19647624 -0.21766888 0.06357254 -0.06524681 0.11483618 0.16170454 0.054761846 -0.0005042858 0.015930023 -0.053189527 0.08950998 0.090245895 -0.04198652 -0.04705873 -0.09558633 0.059452526 -0.016912881 -0.055882256 -0.15152076 0.021984752 -0.18832457 -0.17217821 0.04457042 -0.103287816 0.107799694 -0.01950065 0.01724177 0.16971418 0.004451996 -0.030767068 -0.06771003 0.004856752 -0.05923572 -0.10104328 -0.09515388 -0.096393734 -0.12625301 -0.14095253 -0.1588247 0.08862302 0.18514755 0.06502715 -0.14901955 0.09033961 0.02085802 0.1486884 -0.026805868 -0.11436038 -0.0595138 0.01475781 -0.058848646
33 -0.09531256 -0.15149099 0.09355166 0.14804128 0.20464948 0.052013904 0.17145136 -0.09218845 -0.07716071 0.055912774 -0.14671902 0.034032058 -0.06419408 0.0005764581 0.16366772 -0.11639556 0.00686091 -0.051363654 0.06168919 0.20380183 0.12384967 -0.13862316 0.10301336 0.18330795 -0.045763932 -0.15606774 0.06532408 0.06602095 -0.12162863 0.004028868 -0.011467104 0.06564308 0.28222358 -0.0006919237 -0.030973116 0.1208694 0.09390169 0.053995997 0.030900877 -0.113750435 0.03892188 0.0063254153 0.06289522 0.16442792 0.07330357 0.084432214 0.0030082727 -0.06649134 0.07304518 0.07393804 -0.10566563 -0.12480971 -0.1450441 -0.0056791366 -0.031614218 -0.02241366 0.06550947 0.0069473316 0.16600305 0.18278867 -0.10485852 -0.10642302 0.21644124 -0.08585273 0.04830894 -0.11244959 0.06260679 0.035767812 -0.024899693 -0.03767305 0.033287346 0.024324708 0.25421023 -0.13538277 0.10230515 -0.0028335094 -0.0032601047 -0.08595785 -0.2780539 -0.02190038 -0.037323352 0.15295856 0.22744821 0.051516112 0.016053494 0.04272388 -0.07328352 0.07380599 0.036798894 -0.006255919 0.0450366 -0.06735095 0.121010795 0.063388266 0.012937997 -0.10279401 0.084036365 -0.13344067 -0.1505157 -0.011405712 0.01583248 0.07289266 -0.040722605 -0.06687096 0.12252129 -0.004707368 -0.12691753 -0.15004683 0.10992651 -0.056425646 -0.18849872 -0.0073564085 -0.04237091 -0.11466649 -0.22124341 -0.06387653 0.04592903 0.11694599 0.033936396 -0.2137364 -0.0052474192 0.1482758 0.17311358 0.046189755 -0.00018201639 -0.060111236 0.1248948 0.01471733
3 -0.13589416 -0.14401194 0.051318724 0.08788047 0.18154876 0.021949964 0.20342675 -0.09949237 -0.015745215 0.062187143 -0.13473894 -0.059532575 -0.026076233 -0.05628225 0.14562108 -0.064481944 0.06142618 0.019342083 0.023630667 0.15904346 0.12714766 -0.13093764 0.08059399 0.18629189 -0.03012258 -0.123267084 0.042341013 0.09585081 -0.21509506 0.008702269 0.009843995 0.044669803 0.25404295 0.00999291 0.011357969 0.086988516 0.08483802 0.055667482 0.013838593 -0.13080603 0.022927705 -0.038076393 0.12462779 0.20095778 0.05131389 0.06294979 0.075952336 -0.120608404 0.053348828 0.06536316 -0.17526858 -0.05678606 -0.09467529 -0.012878511 -0.09439469 0.048707247 0.04496933 0.021048933 0.21725301 0.07039341 -0.13931344 -0.05143747 0.21854657 -0.11237099 0.07641951 -0.054914217 0.068995275 0.0021015138 -0.06409538 -0.04192883 -0.03648333 -0.023335781 0.20740695 -0.037880696 0.08932434 0.044021197 0.00043135343 -0.16550933 -0.24352215 0.03930752 -0.052267674 0.1296017 0.17852971 0.058074128 0.0054770536 0.011836298 -0.05362277 0.0829185 0.07860208 -0.037977275 -0.015935225 -0.095983565 0.080350816 0.0048175175 -0.04360985 -0.13747396 0.044779442 -0.18174222 -0.17814034 0.033937927 -0.073609136 0.09721429 -0.015647054 -0.005577187 0.16477112 0.00071637274 -0.060208037 -0.09315813 0.03991237 -0.056786355 -0.1336339 -0.079312734 -0.09345672 -0.12029978 -0.15979786 -0.13957873 0.07754131 0.16706398 0.06314998 -0.16059126 0.07079087 0.052370213 0.15597676 -0.008104428 -0.08896715 -0.049687553 0.04908045 -0.03680684
2 -0.1343178 -0.13581735 0.04555971 0.07896967 0.17735668 0.010948193 0.20706245 -0.10666748 0.0031977845 0.063657396 -0.13220568 -0.07037548 -0.020633403 -0.06880692 0.14363614 -0.051779453 0.07322371 0.034744818 0.022659717 0.14515461 0.13053766 -0.13192248 0.06959986 0.192797 -0.023748523 -0.12158491 0.036872484 0.09685192 -0.22763696 0.010118585 0.020090848 0.048114616 0.24180256 0.020779498 0.016266469 0.07926236 0.07460558 0.05721093 0.007163987 -0.12960316 0.024378499 -0.041921224 0.12672704 0.20061396 0.048360076 0.05944067 0.082476266 -0.121512234 0.03887131 0.05593243 -0.18939917 -0.04048389 -0.095363565 -0.017912883 -0.11087026 0.056641255 0.043691684 0.0196902 0.22081634 0.049451932 -0.14033306 -0.037602935 0.21101111 -0.124102294 0.077135205 -0.037564684 0.07186033 9.796815e-05 -0.06766987 -0.04377654 -0.050918855 -0.034295917 0.20568736 -0.019320128 0.08452806 0.04981733 0.0069543016 -0.18055744 -0.23163167 0.0502152 -0.056386597 0.12015169 0.17571422 0.061528645 0.0023251215 0.016554829 -0.055155456 0.08771526 0.0881899 -0.040615078 -0.030577246 -0.097871184 0.07223786 -0.0071816207 -0.051305328 -0.14467624 0.040846173 -0.18898273 -0.17758755 0.03553334 -0.09016364 0.10012191 -0.016933376 0.00020784223 0.1717682 0.0024664693 -0.053001612 -0.08478676 0.02630235 -0.056904912 -0.11844769 -0.08882391 -0.099768594 -0.12438319 -0.15238312 -0.15043995 0.08195485 0.1806311 0.06567057 -0.15801026 0.08224443 0.034289908 0.15781523 -0.018678602 -0.10331799 -0.056388415 0.03262284 -0.044128142
32 -0.106135316 -0.14714077 0.093995705 0.14661685 0.19318423 0.054171164 0.17096548 -0.09308945 -0.08038038 0.0611506 -0.14564861 0.026148481 -0.0601008 -0.005868777 0.16206086 -0.11805814 0.017819326 -0.046803657 0.05520415 0.20030272 0.12233071 -0.14123376 0.101547725 0.17981261 -0.047516536 -0.15320742 0.06511008 0.06970942 -0.13172132 0.0055574225 -0.011422678 0.060494713 0.28039616 -0.0037349488 -0.02182376 0.12076265 0.08909742 0.053051908 0.0358024 -0.10563955 0.04254808 0.0113238925 0.07294706 0.16689067 0.07068048 0.07659202 0.0042646932 -0.06894483 0.072370715 0.07412937 -0.11528904 -0.11702526 -0.1470487 -0.0043544057 -0.03861976 -0.016443523 0.07164313 0.0032114813 0.17111054 0.17379573 -0.10295157 -0.10170989 0.2150459 -0.096049696 0.04474624 -0.11197398 0.062035102 0.033362266 -0.021168359 -0.04117978 0.035279315 0.027211834 0.24804948 -0.1314705 0.10910448 0.0024912015 0.0005826767 -0.08460959 -0.27129793 -0.0207223 -0.038075816 0.15112609 0.22413842 0.052546237 0.017664177 0.03577822 -0.075342625 0.077325426 0.035936836 -0.0017113788 0.04479434 -0.072668165 0.11620579 0.060515102 0.01090308 -0.09635888 0.08553234 -0.13513632 -0.15382867 -0.008971793 0.003671175 0.07957742 -0.03285954 -0.06614715 0.12466135 -0.0010402838 -0.12738699 -0.14402203 0.10533866 -0.054806247 -0.18606342 -0.017636776 -0.048448823 -0.11506803 -0.21375062 -0.064383514 0.046596207 0.11754792 0.030888638 -0.20685388 0.006250843 0.14003523 0.17393877 0.038285464 -0.009950131 -0.051275704 0.11981426 0.012976032
4 -0.14139335 -0.13835633 0.04065398 0.07314753 0.17254992 0.013460144 0.20382996 -0.105757646 0.012875497 0.056526728 -0.12642504 -0.07883045 -0.019084958 -0.07596424 0.13872372 -0.044024583 0.07966315 0.044212446 0.014199798 0.13979666 0.12989038 -0.13344921 0.07200536 0.19176747 -0.021868942 -0.11642939 0.03844231 0.10119447 -0.2356856 0.0132640805 0.014761965 0.044702176 0.24149059 0.019597016 0.020766372 0.06976486 0.07622477 0.05210918 0.0022189233 -0.132307 0.013003474 -0.046726257 0.13696669 0.2046108 0.051115833 0.05721138 0.09421622 -0.1349938 0.04213216 0.054330584 -0.19752558 -0.030471273 -0.08235662 -0.0117697455 -0.12004078 0.062233593 0.036292307 0.025774404 0.2254665 0.03677103 -0.14814283 -0.032669634 0.2172646 -0.12213838 0.08711326 -0.034560677 0.07789384 -0.010831694 -0.07333161 -0.049263287 -0.05014533 -0.03571506 0.19545393 -0.008290911 0.08157257 0.053878434 0.0073528118 -0.19225341 -0.22351632 0.06316745 -0.054578885 0.1159841 0.16468044 0.059072398 -0.006234175 0.011527815 -0.0462005 0.08437799 0.084459834 -0.04760709 -0.03852142 -0.09817893 0.071846925 -0.017032629 -0.05615132 -0.14173202 0.031461433 -0.19549632 -0.17861378 0.039726753 -0.10334497 0.10264735 -0.011647259 0.009635482 0.17705771 0.0028551337 -0.04120053 -0.074647866 0.01409909 -0.054264445 -0.1168804 -0.10092891 -0.10422378 -0.123071186 -0.1416715 -0.15912145 0.08332899 0.1872897 0.07209049 -0.15048994 0.08935962 0.01808361 0.15791269 -0.017644769 -0.11411615 -0.049785815 0.023951331 -0.052469436
14 -0.12939197 -0.13783163 0.051904354 0.09005999 0.18324424 0.024666652 0.20743601 -0.10119804 -0.015847242 0.06034967 -0.13322029 -0.053066343 -0.028621722 -0.061639506 0.14597645 -0.06488556 0.05763089 0.02078483 0.024191694 0.15822807 0.13097125 -0.13461293 0.07769766 0.19091724 -0.032549042 -0.13536683 0.042124417 0.092453435 -0.20457059 0.009625106 0.0073235566 0.05646423 0.24937487 0.011688182 0.004932843 0.086425945 0.08100269 0.060530555 0.010529256 -0.13222907 0.024898464 -0.034138948 0.11998402 0.1931929 0.0530873 0.065481745 0.06693142 -0.1156204 0.052674375 0.066505164 -0.1727504 -0.056589134 -0.10607222 -0.0072837556 -0.09501251 0.04630724 0.05016763 0.020542398 0.21754418 0.07445508 -0.13454752 -0.04724953 0.21565165 -0.11506596 0.074431434 -0.05987599 0.071144044 0.0014305896 -0.05622092 -0.04264095 -0.026854958 -0.016962714 0.21146835 -0.03879663 0.0816134 0.04379652 0.007162279 -0.15345433 -0.24129698 0.034773856 -0.05127003 0.12773566 0.18427435 0.05307208 0.0045362446 0.0166752 -0.052526005 0.084988624 0.074398726 -0.031608623 -0.011393896 -0.092055306 0.07930871 0.010671899 -0.0376067 -0.13272327 0.048965685 -0.17300564 -0.16924648 0.023963872 -0.06765109 0.09765375 -0.020170515 -0.011995582 0.15252446 0.008402981 -0.062211372 -0.09198137 0.04000441 -0.053859204 -0.12869018 -0.06847541 -0.08630323 -0.11829373 -0.16707712 -0.12776478 0.070344396 0.15677962 0.05283621 -0.16239557 0.062373843 0.05504559 0.15443859 -0.00075212383 -0.080179855 -0.05417047 0.05624995 -0.03681469
24 -0.10067812 -0.15773916 0.100710765 0.15042496 0.20265646 0.05432846 0.17929186 -0.10074638 -0.08300551 0.06433464 -0.14793845 0.035798755 -0.06970425 -0.004014264 0.16893882 -0.12215102 0.012534215 -0.05585988 0.061098948 0.20771268 0.12111675 -0.14578284 0.10329015 0.18180442 -0.04942104 -0.1611193 0.06605666 0.073865786 -0.12305431 0.0073189754 -0.009791576 0.07008342 0.2966439 -0.0047500394 -0.024999015 0.12750015 0.091899686 0.052163154 0.028001014 -0.11938567 0.05181278 0.013254358 0.0640264 0.17158538 0.0705966 0.08651089 -0.002153718 -0.06866808 0.08079357 0.0750766 -0.113077596 -0.12685323 -0.1554046 -0.0070643914 -0.03724298 -0.023446452 0.066813156 0.0035001058 0.17566946 0.18706124 -0.1091392 -0.103986025 0.22642721 -0.09337324 0.04314953 -0.11532193 0.062364694 0.03680879 -0.024670437 -0.036432873 0.041455694 0.027799098 0.2607994 -0.13875534 0.111037806 -0.0031471548 -0.004002066 -0.08570257 -0.28569508 -0.028524578 -0.041109417 0.16032541 0.23118217 0.05469573 0.018985191 0.044096187 -0.07458095 0.07414433 0.03221826 0.0012525991 0.04847214 -0.07221094 0.12431001 0.067247234 0.00907187 -0.10023062 0.08457034 -0.13634369 -0.14856757 -0.0129004195 0.014699462 0.07980911 -0.042555787 -0.072957866 0.12162167 -0.006122149 -0.13251421 -0.14980656 0.112121776 -0.05981594 -0.1904645 -0.006239565 -0.04326773 -0.11939429 -0.22020124 -0.06579135 0.050436795 0.119419165 0.03200653 -0.21987942 -0.0021052684 0.14973813 0.17433962 0.045839846 0.00021615208 -0.05525837 0.12791085 0.014424576
28 -0.104556434 -0.14989133 0.08971041 0.14569782 0.19702324 0.05709166 0.17921346 -0.08734732 -0.07829745 0.05848521 -0.14565748 0.021055596 -0.06596536 -0.014981409 0.15567574 -0.11205591 0.013426352 -0.04362106 0.0523347 0.20119335 0.12389284 -0.13414162 0.10201569 0.17533408 -0.04551754 -0.14517112 0.055833165 0.06959 -0.12796457 0.001804928 -0.009539274 0.059518024 0.2739971 -0.0020528168 -0.014803628 0.11326462 0.08591483 0.049925376 0.029178835 -0.10524678 0.037646264 0.002878763 0.06472151 0.16454719 0.07191293 0.07891627 0.004402013 -0.07802054 0.07654783 0.07186326 -0.11219946 -0.11827579 -0.13720821 -0.0017635578 -0.03887598 -0.01927203 0.072271205 0.0064221118 0.16841052 0.1717588 -0.10538748 -0.097299434 0.21381183 -0.095488325 0.04674929 -0.10971185 0.060674474 0.025465675 -0.024148144 -0.035226256 0.027204398 0.027830957 0.24589697 -0.12829557 0.10231526 -0.0023689696 -0.0027265495 -0.08881032 -0.27251962 -0.020136185 -0.03440326 0.15082292 0.22254528 0.04882976 0.009771777 0.03738104 -0.06764355 0.07384531 0.038175162 -0.00689671 0.036560453 -0.07429449 0.11575216 0.059808917 0.004815618 -0.095490955 0.08470526 -0.14211142 -0.15266812 -0.0007443024 0.0008268437 0.0758707 -0.032987278 -0.056924958 0.12505536 -0.004213688 -0.117811196 -0.13985084 0.103755854 -0.054268993 -0.18502037 -0.018216664 -0.04730835 -0.107719354 -0.21444888 -0.069738396 0.047689576 0.11443174 0.030183293 -0.19742683 0.008004418 0.13759065 0.17505138 0.0424848 -0.011382315 -0.052283786 0.113802485 0.010541593
7 -0.16518854 -0.13883686 0.025065066 0.042023934 0.1775735 -0.018365972 0.24458162 -0.12752137 0.034306694 0.08248712 -0.13069093 -0.11452304 0.016139474 -0.11176821 0.14917347 -0.0148663735 0.11460347 0.084335476 0.012139185 0.10649403 0.13551562 -0.15195145 0.0549786 0.2090971 -0.020091783 -0.13607591 0.05001327 0.12967727 -0.29681578 0.016487792 0.03698217 0.065567315 0.23671632 0.037729472 0.029940864 0.06558512 0.06408436 0.07203532 -0.011519681 -0.18008798 0.015926557 -0.07372221 0.1766757 0.23919325 0.03429949 0.04094237 0.12677969 -0.16319333 0.027058417 0.061720517 -0.26421952 0.0034567416 -0.0920247 -0.016948657 -0.16002324 0.11679116 0.026139945 0.033398088 0.28182977 -0.01597973 -0.17703015 0.0014790318 0.22633186 -0.1515028 0.10134132 -0.013759013 0.098741665 -0.0217521 -0.086137794 -0.05995984 -0.089600585 -0.07255484 0.19681299 0.04713729 0.06857722 0.099496625 0.012126046 -0.24121125 -0.22573476 0.09175721 -0.091516905 0.12100031 0.17275791 0.058605094 -0.007870022 0.010679452 -0.0670371 0.090677746 0.11347035 -0.047860693 -0.07397257 -0.10985083 0.051734503 -0.042982385 -0.08503201 -0.18498014 0.012735559 -0.21837214 -0.19973119 0.05387912 -0.12868932 0.12575306 -0.0248904 0.031722084 0.18987316 0.01038364 -0.0096717235 -0.054528 -0.028241668 -0.064496934 -0.08774786 -0.12336556 -0.12187983 -0.14595439 -0.13631652 -0.19815305 0.10016346 0.22610672 0.08118531 -0.16497579 0.11871382 -0.0050785053 0.15278217 -0.05406396 -0.15430945 -0.071212605 -0.0071963095 -0.076819085
9 -0.10712044 -0.14415422 0.07728155 0.11116593 0.18582925 0.034169182 0.17869613 -0.09803339 -0.05050451 0.05707122 -0.13683134 -0.008353359 -0.04117585 -0.023924334 0.14923187 -0.087184064 0.033327296 -0.016603587 0.0452268 0.16641933 0.118350714 -0.1388144 0.088405475 0.1780679 -0.033050347 -0.14540257 0.05461631 0.08043293 -0.16757013 0.005159852 0.002049045 0.060704388 0.2618308 0.0056691556 -0.0157484 0.100446574 0.08739105 0.052735608 0.016193952 -0.12578887 0.03345866 -0.010519005 0.093901604 0.18002625 0.062647715 0.06974757 0.03251061 -0.09305007 0.059399348 0.06848646 -0.13932563 -0.08895897 -0.12682204 -0.0073096636 -0.06697713 0.010972571 0.056883037 0.008416006 0.1918993 0.1228615 -0.11844708 -0.07312645 0.21590164 -0.0957187 0.06198921 -0.085430734 0.063722126 0.022837507 -0.043752924 -0.04175296 0.0056999163 -0.0020033482 0.2351971 -0.08842197 0.09107059 0.015470507 0.0026591045 -0.12070477 -0.25695485 0.010735487 -0.051913545 0.14134955 0.20881744 0.049429815 0.0069526476 0.034254644 -0.062330432 0.07529484 0.05671062 -0.01613243 0.019074738 -0.07648999 0.105419904 0.037073657 -0.016381405 -0.114933245 0.0634362 -0.15050259 -0.15592952 0.0025096608 -0.026293047 0.08873989 -0.03497095 -0.038228914 0.13264748 0.0025909764 -0.092449136 -0.12060787 0.073010676 -0.061439347 -0.1665932 -0.036194377 -0.06506531 -0.11593493 -0.19367288 -0.0988282 0.063702844 0.14158209 0.047755335 -0.19481762 0.03132992 0.09726068 0.163639 0.02390698 -0.042925622 -0.060487986 0.08616526 -0.012555266
6 -0.15337819 -0.13731875 0.030391224 0.053367905 0.1806822 -0.0116377305 0.22628804 -0.12092845 0.023041915 0.08164348 -0.12917665 -0.08853982 0.00220234 -0.09507479 0.1476632 -0.025267325 0.10212614 0.063333794 0.018900163 0.11918177 0.1339538 -0.15345189 0.062013153 0.20820598 -0.020482782 -0.1442483 0.047222365 0.12393612 -0.26955092 0.016919427 0.032676127 0.06201738 0.24489993 0.028247813 0.016674984 0.07358012 0.06404499 0.0673109 -0.008851284 -0.17276223 0.02238813 -0.055513255 0.1606943 0.22249568 0.038884845 0.04753372 0.10830424 -0.14729424 0.032794088 0.06340251 -0.24089582 -0.01356145 -0.099949196 -0.020052409 -0.13935106 0.09423508 0.035319816 0.022605423 0.26021937 0.011975525 -0.16113645 -0.012035095 0.22665568 -0.14304903 0.09134433 -0.023847077 0.09362316 -0.013085883 -0.081195824 -0.06064435 -0.066165976 -0.056976646 0.19881645 0.01733586 0.07145626 0.08033388 0.012770744 -0.22076951 -0.23378175 0.075425975 -0.0828655 0.12594296 0.17609015 0.059182547 -0.0038105806 0.019500185 -0.06971805 0.08307789 0.10195395 -0.03358398 -0.053742714 -0.09906822 0.0606224 -0.02958198 -0.06768725 -0.173198 0.017746301 -0.20370147 -0.18551777 0.04816577 -0.11083807 0.11853132 -0.027638135 0.016541686 0.18489197 0.014934632 -0.0306546 -0.070138894 -0.009722363 -0.059689995 -0.10044186 -0.110814035 -0.1135264 -0.13899437 -0.15045609 -0.17492345 0.0951469 0.20984416 0.0783375 -0.17161173 0.09865192 0.015742062 0.15573527 -0.039926235 -0.13169715 -0.06729507 0.013046022 -0.065553635
30 -0.09443121 -0.14949606 0.0945142 0.1437724 0.19626684 0.0520579 0.16655079 -0.0842948 -0.08078367 0.057109013 -0.14504166 0.034920704 -0.06663986 -0.0026355465 0.15808862 -0.11527453 0.016732289 -0.05134183 0.0624315 0.20255296 0.115027405 -0.131546 0.09915558 0.17968008 -0.04466111 -0.1435503 0.06471303 0.06972728 -0.12304473 0.0021270916 -0.005927433 0.054480534 0.2804699 2.858862e-05 -0.0276547 0.11627673 0.08605035 0.054464743 0.029314123 -0.11315522 0.044407986 0.012390822 0.06964464 0.16231062 0.07860934 0.0830071 -0.0012991377 -0.07323101 0.079674676 0.06966572 -0.1047581 -0.12664779 -0.14936057 -0.0054515433 -0.0308625 -0.023337265 0.06562626 0.0020808212 0.1614881 0.17630468 -0.09693581 -0.10911272 0.21703675 -0.0872112 0.049831994 -0.10727581 0.066627376 0.037894335 -0.023623386 -0.038724866 0.04254918 0.024938598 0.25228122 -0.14019762 0.1109378 -0.0027352332 -0.0049404176 -0.08454633 -0.28188518 -0.02363466 -0.03695547 0.15169983 0.2270157 0.054407828 0.011064986 0.041327745 -0.07411907 0.06960538 0.034616206 -0.00046600256 0.04756269 -0.07104936 0.120539464 0.059897114 0.008503349 -0.10080347 0.085231304 -0.1404618 -0.15351105 -0.011877214 0.010094185 0.07697393 -0.031688362 -0.060807336 0.12206702 -0.002589536 -0.13348547 -0.15038666 0.114092715 -0.055482697 -0.19152993 -0.013979434 -0.049027868 -0.11487763 -0.22217536 -0.067755684 0.050829634 0.119611144 0.036284022 -0.21474591 -0.003589973 0.1463979 0.17486565 0.03897357 -0.0021249088 -0.05617606 0.12237738 0.012187816
8 -0.1435451 -0.140557 0.041782606 0.07128108 0.17471386 0.009797229 0.21691002 -0.110253476 0.005717124 0.06168274 -0.12941015 -0.08148655 -0.009802784 -0.07915232 0.1433294 -0.037507012 0.07185942 0.04358551 0.021397911 0.13843259 0.13001195 -0.13903522 0.06857861 0.19668233 -0.02566748 -0.1304215 0.04216683 0.10541237 -0.23658952 0.010749564 0.018333543 0.05051849 0.23795395 0.019139126 0.020416375 0.07342611 0.07879619 0.057636395 -0.0015231689 -0.14171518 0.022719063 -0.05111482 0.13879709 0.20314363 0.042919938 0.05981309 0.08822877 -0.13084584 0.040031966 0.057283312 -0.2043861 -0.0327008 -0.08989529 -0.00976713 -0.119079836 0.06958724 0.044112947 0.020428859 0.23898874 0.04034499 -0.14459564 -0.028364792 0.21473327 -0.123914264 0.08388496 -0.032933027 0.0810534 -0.005576379 -0.06817715 -0.047174763 -0.05773044 -0.03709873 0.20495272 -0.0014751808 0.07998063 0.056444738 0.005534541 -0.19385795 -0.23626126 0.061919495 -0.060945097 0.123930134 0.17577797 0.05572312 -0.0014611664 0.01343005 -0.052309025 0.08993684 0.09005154 -0.038561516 -0.037988737 -0.0957896 0.07144077 -0.010633017 -0.052021552 -0.14909993 0.031223068 -0.1960075 -0.17963031 0.04338905 -0.097822465 0.11002356 -0.0221962 0.00823884 0.17344499 0.009996772 -0.045418568 -0.0734538 0.014746296 -0.06260954 -0.11329694 -0.095458515 -0.10210514 -0.12815379 -0.15453154 -0.15407322 0.08669022 0.18752658 0.069793455 -0.15978964 0.08737942 0.028457548 0.15579265 -0.022504993 -0.10931906 -0.05473999 0.026840357 -0.053928148
31 -0.1020193 -0.14032644 0.0794822 0.11904337 0.18660451 0.04039172 0.17258914 -0.09231444 -0.058165632 0.05341135 -0.13435456 0.0108822975 -0.050268423 -0.014425534 0.15440571 -0.101183526 0.026762383 -0.032528862 0.045491055 0.18351766 0.11631793 -0.13088852 0.09275255 0.17438217 -0.043725062 -0.14381713 0.054184124 0.072903134 -0.14167191 0.0071307416 -0.0029585848 0.060058836 0.26861483 0.003100129 -0.018242551 0.106518336 0.087012835 0.048884124 0.026703972 -0.11446291 0.042718798 -0.0022895546 0.0764285 0.16907221 0.06972424 0.07326283 0.01771848 -0.081029244 0.06659665 0.068789065 -0.12563495 -0.10248663 -0.13438761 -0.013031774 -0.046247393 -0.00700257 0.05771702 0.0052875923 0.17002115 0.14756352 -0.109959096 -0.09024226 0.20165297 -0.08972149 0.047524158 -0.093087025 0.058063947 0.029711397 -0.029601455 -0.042421263 0.022410315 0.010246748 0.23630442 -0.10517457 0.095646456 0.010121197 0.002296106 -0.09894442 -0.25615948 -0.012145769 -0.03627245 0.13461569 0.20281123 0.048383214 0.0129558435 0.026908686 -0.06184592 0.07197864 0.041519444 -0.012340268 0.027540987 -0.07758874 0.100169316 0.038935926 -0.006227437 -0.1075633 0.06889969 -0.13688506 -0.15330951 -0.0006761182 -0.010601176 0.07452081 -0.03284402 -0.053486057 0.12317321 0.005207891 -0.11435226 -0.12359243 0.08250542 -0.05365732 -0.16860645 -0.02402341 -0.051974986 -0.11005569 -0.1896978 -0.08143179 0.047868874 0.12377452 0.0378872 -0.19177338 0.014275345 0.11330496 0.15928595 0.024274796 -0.028138159 -0.054642383 0.09641322 0.001051141
25 -0.103705816 -0.15477566 0.105401285 0.16501665 0.20688613 0.06945267 0.17918739 -0.09166653 -0.10217077 0.062089816 -0.15374057 0.047494728 -0.07534225 -0.00022801073 0.17196319 -0.13439053 0.00053890934 -0.06982868 0.061294097 0.22383812 0.1310947 -0.14191994 0.10621303 0.17362992 -0.050482456 -0.16139363 0.0629841 0.05854012 -0.11090616 0.00070193835 -0.023315787 0.060322043 0.29764825 -0.010149632 -0.024385335 0.13258636 0.09248698 0.052167483 0.04421664 -0.093406916 0.054419573 0.021349575 0.058613535 0.1603536 0.07303829 0.08882526 -0.009537634 -0.06499043 0.083672665 0.07945491 -0.09891871 -0.1433552 -0.1521931 -0.0036016733 -0.026397336 -0.039099384 0.080213994 0.0087967245 0.15877949 0.20950139 -0.09985592 -0.119638056 0.2243501 -0.09134843 0.038860347 -0.13089311 0.056461196 0.031037217 -0.017677642 -0.03594034 0.04457878 0.050040007 0.25328016 -0.15986656 0.11562004 -0.008361182 -0.003712925 -0.06628644 -0.2867789 -0.043334514 -0.03154723 0.16635606 0.23385921 0.052986458 0.023710012 0.03710803 -0.07069672 0.08068697 0.024351781 0.0022862365 0.05679153 -0.06466198 0.12367288 0.080880366 0.020552061 -0.08441826 0.09655667 -0.13359272 -0.14983284 -0.014397564 0.021399338 0.06739949 -0.038154762 -0.081833065 0.11315884 -0.006255954 -0.14135456 -0.15459839 0.120244324 -0.056566436 -0.20131856 0.00012572092 -0.039573126 -0.106518775 -0.22795865 -0.049193956 0.036271065 0.096717425 0.028612517 -0.20787576 -0.012982258 0.16583695 0.18172939 0.05249687 0.004726877 -0.0460975 0.13631761 0.023317698
29 -0.1125712 -0.15418445 0.08724652 0.1420286 0.20318197 0.047576904 0.18928558 -0.09740015 -0.064697646 0.06042803 -0.14983077 0.010086853 -0.062481813 -0.019650668 0.16542849 -0.11303097 0.022976555 -0.037739754 0.04862324 0.20151903 0.13296111 -0.13831434 0.099707976 0.18358253 -0.04264553 -0.1520277 0.054870993 0.07528643 -0.1478551 0.008016838 -0.010349303 0.060720846 0.28439957 -0.003279757 -0.015466411 0.11741127 0.09176723 0.05246371 0.030668074 -0.11031306 0.04155788 0.004942102 0.0824116 0.17262867 0.072902024 0.07951688 0.0195313 -0.081135236 0.07396856 0.077657886 -0.12747878 -0.11274652 -0.13713545 -0.008448617 -0.051693093 -0.0065553184 0.0655476 0.005693586 0.18289632 0.15773608 -0.11272607 -0.09449685 0.22154845 -0.09849078 0.05571278 -0.10367151 0.06127816 0.022721117 -0.03134377 -0.04191428 0.024055978 0.017045189 0.24837303 -0.116072774 0.10190993 0.007992619 -0.0053155166 -0.104180895 -0.27727628 -0.015344296 -0.037913166 0.15372539 0.22023067 0.051908467 0.010892454 0.031445075 -0.06830733 0.08356925 0.047580507 -0.012712612 0.031541727 -0.0797505 0.10881148 0.052841622 -0.0018182826 -0.10470521 0.08303635 -0.15190919 -0.15788299 0.0034996262 -0.0075690695 0.084207535 -0.032287728 -0.054423425 0.13537607 0.00023471807 -0.117279924 -0.13902135 0.0966447 -0.05260468 -0.18067408 -0.030654665 -0.05330021 -0.11445356 -0.20860772 -0.08214546 0.05320686 0.12736294 0.038182188 -0.2048939 0.016647734 0.12687969 0.17605028 0.033334147 -0.02726383 -0.0541917 0.112636566 0.0016691213
5 -0.15254512 -0.1375454 0.024216523 0.045595307 0.1736403 -0.01590159 0.22648157 -0.12268602 0.028646367 0.0727064 -0.12142538 -0.10609264 0.0066739754 -0.09631263 0.14525664 -0.02293411 0.101652294 0.0782593 0.010875407 0.10734085 0.12625946 -0.14579228 0.058023617 0.20249817 -0.016724747 -0.12795967 0.045841854 0.11847707 -0.27787575 0.010658714 0.029286236 0.06124263 0.22989333 0.029605588 0.022697173 0.06449401 0.06458731 0.061967473 -0.011459124 -0.16783516 0.009787926 -0.06478473 0.16231287 0.22431831 0.029997362 0.042342134 0.11326471 -0.15078297 0.023373373 0.05854474 -0.24367231 0.004820492 -0.0840061 -0.013410346 -0.14837183 0.105586015 0.030387685 0.030005362 0.26354888 -0.004959801 -0.16419262 -6.915245e-05 0.21489456 -0.1366894 0.091003 -0.011952477 0.08722086 -0.012343376 -0.08423039 -0.057562746 -0.08169781 -0.06370546 0.18207565 0.037283435 0.066607915 0.08804708 0.013506418 -0.22187641 -0.21432234 0.08885557 -0.08451863 0.1130021 0.16409336 0.057220574 -0.0044780765 0.016806183 -0.05755637 0.086045235 0.10060916 -0.039776724 -0.06524153 -0.10134857 0.05125767 -0.036377426 -0.07152278 -0.16894768 0.011999248 -0.2061542 -0.18369336 0.04984136 -0.121103965 0.120576076 -0.019028125 0.025037497 0.18117248 0.013184559 -0.013072265 -0.05185537 -0.024088597 -0.061650682 -0.084017105 -0.11112185 -0.11196377 -0.12950277 -0.12658353 -0.1753689 0.091902025 0.20864281 0.07614923 -0.14962548 0.10678241 -0.0022394573 0.13821368 -0.046707798 -0.1353252 -0.061167013 -0.0033772807 -0.07354737
20 -0.125073 -0.14829949 0.06572315 0.10163033 0.18866026 0.026143739 0.19271275 -0.099563815 -0.028169828 0.061979268 -0.13189974 -0.02719322 -0.033416793 -0.041806914 0.1515353 -0.080734156 0.046636667 0.0017907729 0.036348764 0.16799764 0.12631269 -0.1372569 0.08236304 0.18809809 -0.030999782 -0.13995008 0.04896153 0.08584236 -0.18941079 0.0069905133 0.0092703 0.054090377 0.26060057 0.010977639 -0.0036418468 0.096005216 0.08394948 0.054585975 0.016751984 -0.12383654 0.03372429 -0.021592941 0.107471325 0.18915877 0.055542007 0.06321258 0.052885715 -0.10339613 0.055790197 0.06782536 -0.15714952 -0.07425219 -0.1158046 -0.013784174 -0.082598485 0.029386612 0.05609918 0.014303664 0.19720231 0.10000822 -0.12857293 -0.06633272 0.21321031 -0.1110317 0.067558736 -0.067524046 0.067124434 0.011247503 -0.050315443 -0.0454716 -0.014874566 -0.010443901 0.22578704 -0.06388281 0.08837174 0.02950841 0.0010728271 -0.14373243 -0.24906339 0.026867742 -0.051612426 0.13518961 0.19047658 0.056491483 0.0055726166 0.019642983 -0.059192125 0.08184781 0.064047106 -0.021073341 -0.0034612648 -0.08447977 0.09184828 0.017520577 -0.02837766 -0.12584834 0.056250714 -0.16688253 -0.16873848 0.019331397 -0.05370206 0.095860615 -0.028059874 -0.021922495 0.1533911 0.004365537 -0.079909526 -0.1052237 0.055768568 -0.052940886 -0.14677797 -0.057498783 -0.074933484 -0.11740191 -0.17875306 -0.115179606 0.07034362 0.15621063 0.050845698 -0.1829758 0.05159049 0.07914332 0.16565858 0.009057244 -0.064668424 -0.056824334 0.0686456 -0.02843956
26 -0.09485276 -0.15614618 0.10854351 0.17499273 0.20196046 0.071612395 0.16703516 -0.09052347 -0.11466659 0.055977996 -0.14969198 0.065848514 -0.08358088 0.016428981 0.16563877 -0.14552836 -0.007998704 -0.08354989 0.06509079 0.2263761 0.12279691 -0.13981308 0.111893155 0.16689035 -0.05196904 -0.1609813 0.07123066 0.05294968 -0.08837075 0.0048425933 -0.026099036 0.058266222 0.2973399 -0.010208616 -0.02891448 0.13352129 0.097110964 0.054195423 0.045167897 -0.09353248 0.05695642 0.023443673 0.042402036 0.15110801 0.07613344 0.08782445 -0.030281795 -0.050385676 0.0897715 0.085040025 -0.07822994 -0.15083416 -0.15476261 0.0018930321 -0.005199935 -0.049092703 0.08556875 0.0044594994 0.14487685 0.2279594 -0.08965733 -0.12411279 0.21866323 -0.080621265 0.029153017 -0.14254814 0.058596198 0.04339 -0.005534126 -0.030558806 0.066562325 0.057452966 0.2588468 -0.17698115 0.118088014 -0.015088267 -0.0056297253 -0.050571103 -0.2877469 -0.052359406 -0.025295667 0.16732775 0.24344486 0.047577202 0.025260303 0.04139382 -0.077721074 0.07128873 0.017093813 0.011186371 0.06847734 -0.061231364 0.13385831 0.08872078 0.034408048 -0.081544414 0.106375866 -0.11598205 -0.1429274 -0.023546757 0.04575625 0.06685584 -0.036708314 -0.09021045 0.10355473 -0.0023497483 -0.15769303 -0.16241819 0.13829057 -0.05437012 -0.21292356 0.009844898 -0.030811787 -0.10604797 -0.23773564 -0.033001546 0.027036378 0.084213816 0.015289529 -0.22319634 -0.029118396 0.18402882 0.17945285 0.06318052 0.02600212 -0.047419038 0.14675125 0.037088875
11 -0.15003633 -0.13403621 0.025911363 0.050192907 0.17060979 -0.014650118 0.22527616 -0.12041811 0.026873939 0.07539578 -0.11764274 -0.10331178 0.005870965 -0.09472763 0.14544427 -0.019978808 0.10311949 0.07268518 0.011060079 0.109478615 0.123246856 -0.14767253 0.05249932 0.19550864 -0.016671948 -0.13367397 0.0432305 0.11781801 -0.2752477 0.011557668 0.030415894 0.055539638 0.23105155 0.03069897 0.026115095 0.06066916 0.07037075 0.060908873 -0.006593631 -0.16640595 0.016107969 -0.06389453 0.1615451 0.21854943 0.03703384 0.039808616 0.10958406 -0.14761615 0.029923912 0.05613375 -0.24125122 -9.361925e-05 -0.0875353 -0.016444271 -0.14726673 0.09970846 0.02628905 0.027944786 0.26100302 -0.004597097 -0.15808034 -0.0049630683 0.21409166 -0.13686194 0.09367895 -0.0126023125 0.086664565 -0.015239716 -0.07952002 -0.05891681 -0.074663505 -0.06110039 0.18850605 0.03345282 0.067457035 0.08426286 0.013743501 -0.22343902 -0.22124887 0.08667299 -0.08364272 0.11499323 0.16934314 0.060414836 0.00059767655 0.012332 -0.0592393 0.0842604 0.10124932 -0.040727787 -0.063861 -0.09805513 0.057692204 -0.032280844 -0.07184672 -0.16465199 0.016577296 -0.20425896 -0.1874957 0.047568608 -0.11766469 0.11734065 -0.019709326 0.02097794 0.18102047 0.015558788 -0.014284149 -0.05544216 -0.011968401 -0.060781073 -0.09455561 -0.11693262 -0.11353481 -0.13380177 -0.13673112 -0.18080615 0.09762571 0.20579655 0.07805021 -0.15385349 0.10548406 0.0007960022 0.14725074 -0.040622976 -0.13862109 -0.061117154 0.0042303437 -0.073350124
16 -0.11063033 -0.15023029 0.08068345 0.12139559 0.19142954 0.04289324 0.18560009 -0.095107965 -0.057973646 0.063757464 -0.14077361 -0.00070597907 -0.05138187 -0.023996497 0.16108958 -0.09424805 0.033702083 -0.024809206 0.051300354 0.18816751 0.12039492 -0.1402627 0.09080955 0.18202691 -0.043096952 -0.14978835 0.060626235 0.07736157 -0.15658206 0.007758759 0.003656642 0.05939353 0.27936414 0.008099832 -0.016667338 0.112074204 0.08155151 0.053502694 0.019989429 -0.124018535 0.0416718 -0.008620195 0.09087581 0.1767983 0.065398924 0.07819844 0.024561126 -0.08653261 0.06816122 0.07276059 -0.13619797 -0.102581285 -0.13296248 -0.011768428 -0.05535654 0.0021544467 0.062800385 0.010586584 0.19100985 0.14514302 -0.11761244 -0.083049454 0.21899068 -0.10300518 0.054480977 -0.09107791 0.06746422 0.021698564 -0.0357101 -0.045222357 0.011490753 0.0043061664 0.23941094 -0.1030854 0.097216226 0.0116074905 0.0021921995 -0.11501978 -0.26775262 -0.00014307891 -0.044456717 0.14218138 0.21382768 0.05369471 0.015072636 0.030187715 -0.07187341 0.07963103 0.05288875 -0.013392981 0.020329678 -0.077721655 0.10062455 0.03879889 -0.006267742 -0.1179119 0.0677486 -0.15188806 -0.1623254 0.0068942774 -0.020912394 0.08373626 -0.03329756 -0.04470343 0.1349649 0.002943308 -0.105913185 -0.12522618 0.08359453 -0.05471461 -0.16649015 -0.03426103 -0.06312005 -0.1196934 -0.20113653 -0.096548446 0.056896564 0.14014712 0.03909984 -0.19574319 0.021018254 0.11634455 0.1709077 0.022772817 -0.03730787 -0.055560023 0.09687735 -0.007985928
17 -0.15545915 -0.13313466 0.017499965 0.033726495 0.17248039 -0.017032811 0.23953147 -0.1257403 0.04263899 0.078811415 -0.1208931 -0.11771284 0.018291563 -0.103841975 0.14849155 -0.010473727 0.1147605 0.08992043 0.0133114625 0.09826706 0.1289751 -0.15176256 0.050077453 0.2074093 -0.012129724 -0.13568804 0.045663897 0.13049497 -0.29556495 0.009209745 0.038002092 0.065438926 0.23229174 0.038706146 0.030353012 0.0602146 0.06400939 0.071833685 -0.011155864 -0.17811294 0.010435886 -0.0694702 0.17581636 0.23450832 0.028447874 0.04294756 0.12504911 -0.15366444 0.021686329 0.05661031 -0.2612017 0.006864756 -0.088247895 -0.02060475 -0.16086999 0.11974819 0.025992211 0.028182346 0.2795759 -0.02079854 -0.1748937 0.009736525 0.22251296 -0.14366734 0.0977619 -0.005882501 0.09403137 -0.017477868 -0.084864765 -0.061154876 -0.09299379 -0.06677358 0.18321738 0.052885897 0.062088676 0.09741243 0.012354528 -0.2339233 -0.21389873 0.09421978 -0.09175875 0.111980446 0.16726646 0.053556018 -0.003562131 0.016126411 -0.06324955 0.08731408 0.1147696 -0.04355998 -0.07391251 -0.104355246 0.052904956 -0.04301314 -0.08518212 -0.17957726 0.009259149 -0.21402553 -0.18820494 0.055666015 -0.1294359 0.12656228 -0.025660738 0.031039838 0.18550049 0.013556877 -0.0020720018 -0.052271824 -0.031056786 -0.06199837 -0.07985312 -0.12524828 -0.12270454 -0.137932 -0.1287464 -0.19405697 0.09780414 0.222497 0.08368495 -0.15043998 0.11705995 -0.012293385 0.14126033 -0.051051296 -0.1547195 -0.06917987 -0.014446851 -0.07898411
21 -0.10099402 -0.14728467 0.079616025 0.1273674 0.18619874 0.0379932 0.17168213 -0.09447709 -0.060981046 0.056169454 -0.13165757 0.008471373 -0.05131964 -0.015760435 0.15019313 -0.10166496 0.02398361 -0.032167222 0.050820794 0.1742345 0.11184797 -0.12632327 0.092015006 0.17662194 -0.03585443 -0.14084452 0.06048349 0.07209834 -0.13835563 0.0010881891 0.0006139005 0.05820277 0.27046615 0.0076603964 -0.021018628 0.104311 0.08054805 0.05157953 0.019247843 -0.11771159 0.041911207 0.0009893342 0.078929916 0.16580133 0.065004654 0.07661555 0.016301025 -0.08023279 0.063368656 0.073020115 -0.12446893 -0.107008085 -0.13209622 -0.006042479 -0.04764764 -0.008184054 0.058083497 0.0060241525 0.17864573 0.15044132 -0.11310269 -0.08830638 0.2127115 -0.0933661 0.054429132 -0.09036062 0.06603746 0.023136524 -0.029169222 -0.042632706 0.023190644 0.012067316 0.23960254 -0.109909534 0.09628127 0.00624012 0.0020271898 -0.10158531 -0.26004082 -0.0025461316 -0.041998535 0.14731133 0.21023588 0.054410696 0.008091875 0.0329112 -0.06852394 0.0706729 0.049148418 -0.01079711 0.03144197 -0.073079556 0.108361654 0.049115207 -0.004879734 -0.10732127 0.06732951 -0.14578159 -0.14900587 -0.0057852147 -0.009168878 0.08358677 -0.03578552 -0.050725266 0.12485619 -0.0032567165 -0.113005064 -0.13013238 0.09150672 -0.059318893 -0.17259045 -0.026415262 -0.05571115 -0.116610914 -0.20150703 -0.085689984 0.05814897 0.1289221 0.04011158 -0.2002881 0.017936371 0.116144486 0.16685103 0.03305256 -0.02856891 -0.060120635 0.09882432 0.0024809681
10 -0.116327345 -0.15119633 0.078631155 0.12626722 0.19621973 0.042413376 0.19194041 -0.098868735 -0.053245667 0.06004843 -0.13982823 -0.0077135996 -0.05180831 -0.02599444 0.15822013 -0.0934541 0.030677019 -0.02107178 0.047684364 0.18522301 0.12652242 -0.13998161 0.09190032 0.1856571 -0.03773229 -0.15027665 0.056538317 0.082051836 -0.16748287 0.0076174624 0.0014505123 0.058382984 0.27430895 0.002313101 -0.0068860836 0.111405626 0.088913076 0.058783524 0.02105755 -0.11983151 0.03669452 -0.008213447 0.09743673 0.18364991 0.06874985 0.07833668 0.033789724 -0.091922715 0.06933447 0.07065091 -0.13990438 -0.09901655 -0.13183263 -0.0043231277 -0.06662838 0.0076661566 0.062484518 0.008208047 0.19399083 0.13586834 -0.11816676 -0.08328654 0.22327405 -0.10610751 0.058559157 -0.08476651 0.06897856 0.019707726 -0.037459206 -0.040843043 0.012053376 0.008263342 0.2348601 -0.09154133 0.10001787 0.013150752 -0.0009880401 -0.12219358 -0.26839218 -0.0011124454 -0.04192732 0.14303355 0.21006657 0.057057694 0.011373893 0.033541713 -0.069098786 0.08309442 0.050551724 -0.012898809 0.015014082 -0.08520555 0.104963765 0.03450484 -0.009297602 -0.117790975 0.073373124 -0.15299459 -0.16223025 0.011415015 -0.024818622 0.08368585 -0.030710066 -0.040797144 0.14193729 0.0005521799 -0.10289233 -0.12562023 0.075448774 -0.053918943 -0.16150321 -0.035835825 -0.066148885 -0.113525756 -0.19456606 -0.09288281 0.060311347 0.13945821 0.040269475 -0.19121794 0.027204908 0.10297607 0.16951767 0.020701734 -0.041767422 -0.05839175 0.0940368 -0.012915916
22 -0.13164233 -0.13481446 0.05028517 0.078373276 0.17301324 0.015255067 0.2002435 -0.10079773 -0.009928004 0.06241135 -0.12730114 -0.059025668 -0.023554143 -0.06061729 0.14249472 -0.052641418 0.06439199 0.028854504 0.02532079 0.1393479 0.12184226 -0.13142492 0.067929946 0.18717583 -0.02710972 -0.1276376 0.044017117 0.097035825 -0.21361966 0.0064907484 0.014037398 0.050952725 0.23812208 0.014891383 0.007717031 0.07670288 0.07495922 0.0603324 0.002412835 -0.13916734 0.023969244 -0.036907524 0.12573853 0.193014 0.048439533 0.056256026 0.071192145 -0.116195254 0.044198044 0.057537287 -0.17918621 -0.046140265 -0.09698401 -0.0099922195 -0.10269614 0.050571434 0.04290161 0.018942557 0.21979715 0.059126772 -0.13375826 -0.04326244 0.20929785 -0.116527 0.074726574 -0.049521923 0.0757922 0.0018147607 -0.05980449 -0.045582287 -0.03153274 -0.02913924 0.20531718 -0.023339547 0.07822429 0.046335787 0.004745611 -0.1680245 -0.23304832 0.048492048 -0.056392543 0.1217181 0.17658395 0.054401472 8.191273e-08 0.01699641 -0.05829534 0.08097993 0.07488232 -0.030958114 -0.019579861 -0.091077216 0.07312584 -0.0029159966 -0.04174075 -0.13715531 0.0428603 -0.17682801 -0.16479342 0.028329425 -0.07557555 0.09931378 -0.02338521 -0.007590648 0.15745501 0.006249766 -0.056035884 -0.08817977 0.030252703 -0.05316056 -0.12472024 -0.07373391 -0.091797024 -0.119780354 -0.15997918 -0.1335491 0.07929961 0.16725627 0.06427808 -0.16468316 0.06864316 0.045062393 0.15272762 -0.011563474 -0.088538565 -0.05413788 0.043646548 -0.0401283
18 -0.1355785 -0.143123 0.053741015 0.08794395 0.17890821 0.020514304 0.20083499 -0.101742424 -0.017224206 0.06547865 -0.13204865 -0.05529305 -0.02949029 -0.06086729 0.14994366 -0.059312847 0.06605864 0.0184755 0.03132361 0.15516011 0.12760106 -0.13910607 0.078526884 0.1920843 -0.026051225 -0.13006182 0.045552287 0.097513005 -0.2080577 0.014694906 0.007590619 0.053325094 0.25627482 0.012472879 0.006926657 0.089642555 0.08345953 0.055849124 0.010815438 -0.13460343 0.02570596 -0.03403619 0.12693311 0.20005532 0.05119509 0.062436953 0.06755258 -0.120832786 0.052217547 0.06690376 -0.18024543 -0.05597461 -0.102979444 -0.012449317 -0.09646012 0.04461723 0.04888047 0.022099983 0.21904777 0.075183265 -0.13746625 -0.048707124 0.21884733 -0.116306506 0.07817893 -0.050782844 0.07616204 0.005167934 -0.059405025 -0.04815047 -0.028945798 -0.021413172 0.2099543 -0.032567475 0.08447598 0.038922098 0.0014594877 -0.16462982 -0.23846711 0.04290857 -0.054829486 0.12848239 0.18165724 0.058872238 0.004491199 0.016735494 -0.054911237 0.0851719 0.078862466 -0.03185661 -0.01497001 -0.09319643 0.081564814 0.0038591367 -0.041381527 -0.1365058 0.04623321 -0.17443253 -0.17072883 0.029247412 -0.06655766 0.10179506 -0.024714574 -0.0076034926 0.16141036 0.0075684353 -0.06613316 -0.092235304 0.032721866 -0.05830664 -0.13442858 -0.07399581 -0.08976294 -0.12365361 -0.16426684 -0.13626026 0.076625 0.16781648 0.05991352 -0.17293105 0.06793406 0.05271443 0.15805739 -0.009011606 -0.08216494 -0.053324588 0.05365603 -0.040613923
15 -0.10797972 -0.14855686 0.08200606 0.12312335 0.19679613 0.037952192 0.17774518 -0.09755021 -0.056837574 0.062422536 -0.14205584 0.008478367 -0.053961407 -0.015191099 0.15794867 -0.10228187 0.032474246 -0.029475767 0.05380432 0.18087831 0.119277745 -0.1360592 0.094837174 0.18100108 -0.040407807 -0.15033923 0.06257474 0.08071381 -0.14937687 0.005980377 -0.0052199294 0.062353 0.27842334 0.004885477 -0.0206993 0.10807404 0.08956935 0.052591354 0.023916133 -0.11951233 0.035414796 -0.004345251 0.082784355 0.17722236 0.064531825 0.073241755 0.019578025 -0.08281064 0.0716184 0.0712183 -0.13185368 -0.105353765 -0.13731697 -0.012259274 -0.05019911 -0.00021223025 0.06207866 0.012239749 0.18651544 0.14544304 -0.11622828 -0.08878767 0.2189847 -0.09638222 0.052238304 -0.09725174 0.06905751 0.028636493 -0.03493629 -0.04540693 0.017510219 0.010401136 0.24217317 -0.10806901 0.10051734 0.007089196 -0.0028757385 -0.11128067 -0.26397753 -0.005409964 -0.042131715 0.14637159 0.2170143 0.05454863 0.014655082 0.03681747 -0.06635837 0.07796079 0.05017979 -0.009571474 0.028056864 -0.076033786 0.10925245 0.046583053 -0.0101237735 -0.10983244 0.069333605 -0.14515013 -0.1537649 -0.0039336593 -0.006899524 0.08509708 -0.030795971 -0.05424192 0.13544974 0.0006296903 -0.10813476 -0.13236752 0.08495364 -0.053207334 -0.17126141 -0.030249493 -0.05493618 -0.12089922 -0.19904587 -0.08614411 0.054713357 0.13658206 0.041066233 -0.20383184 0.015151486 0.118971884 0.16873275 0.024913855 -0.02514838 -0.06078276 0.10345548 -0.0036683402
23 -0.107051335 -0.14856763 0.08902183 0.13033044 0.19370711 0.04322175 0.17551188 -0.098142505 -0.063885346 0.06157178 -0.14485191 0.010021878 -0.058368698 -0.013526538 0.16028674 -0.10203389 0.023422813 -0.032889154 0.05156787 0.18679132 0.1232112 -0.13628937 0.09722334 0.1795545 -0.041703053 -0.15150735 0.05981151 0.0729864 -0.14354888 0.009153774 -0.0016244886 0.05918662 0.27867812 -3.763914e-05 -0.019107709 0.11435229 0.086391285 0.055840652 0.022042977 -0.11580128 0.040971216 -0.0040072803 0.07678689 0.17595854 0.06981759 0.0812016 0.019313138 -0.07986301 0.07028749 0.071131185 -0.12593564 -0.10848731 -0.13574982 -0.010555079 -0.050931785 -0.004786167 0.06667838 0.011475752 0.17910956 0.15734147 -0.11635336 -0.089421935 0.21522057 -0.09691584 0.05288991 -0.10058238 0.06702959 0.025474653 -0.030623844 -0.03906214 0.018557018 0.015621581 0.24780163 -0.11180379 0.09987269 0.0071586277 -0.0024621678 -0.10736037 -0.27478096 -0.009557386 -0.04292791 0.1479886 0.21501322 0.05060369 0.010577264 0.031642064 -0.06617537 0.0793981 0.044493563 -0.008553512 0.03115194 -0.0768549 0.110253334 0.04588919 -0.001733035 -0.110664204 0.07484056 -0.14904176 -0.16093749 -0.0030640536 -0.004661382 0.08595806 -0.032528676 -0.05503318 0.134727 0.0022616864 -0.116567284 -0.13302794 0.091157146 -0.056068696 -0.17439765 -0.028844131 -0.057515487 -0.12022366 -0.20897348 -0.083545916 0.054886557 0.12845948 0.036791693 -0.20385952 0.015692104 0.123565584 0.17103255 0.033804953 -0.025985291 -0.058166355 0.102947526 0.002477569
27 -0.09831632 -0.14474308 0.07891616 0.13094205 0.18550277 0.038031537 0.17268524 -0.092217915 -0.06071937 0.059086658 -0.14094254 0.01298326 -0.050178282 -0.018182946 0.15239067 -0.0986522 0.023675235 -0.030950056 0.05245015 0.1872162 0.120535545 -0.12975734 0.09356394 0.17946312 -0.042289782 -0.14092802 0.05755643 0.07690239 -0.13537912 0.004505394 0.0022937064 0.061777305 0.27356347 -0.0003582267 -0.018552141 0.11024768 0.078176774 0.053008962 0.021505369 -0.11747086 0.046172097 0.002628674 0.079356335 0.17216486 0.06938533 0.08050492 0.013839254 -0.078627504 0.065235466 0.07515399 -0.121323824 -0.11046697 -0.13822038 -0.013291088 -0.046976108 -0.006556573 0.06705448 0.009338506 0.17512119 0.14785783 -0.107817054 -0.086158834 0.21165131 -0.0946234 0.05418662 -0.09638 0.06524344 0.027950173 -0.027893212 -0.03536745 0.01671737 0.015844373 0.24133803 -0.11332791 0.100481816 0.010410978 -0.0044022636 -0.10242 -0.2657005 -0.011680526 -0.036086008 0.15053618 0.20897523 0.05398486 0.0152617805 0.036036767 -0.07170086 0.07278238 0.044621494 -0.009082772 0.030411722 -0.07777586 0.10298395 0.044079494 0.00035403454 -0.10948145 0.074553154 -0.14105693 -0.14989516 -0.0029341485 -0.0056664 0.07716056 -0.031889115 -0.04917401 0.13162184 0.00072493247 -0.11817121 -0.13556135 0.09125657 -0.052164316 -0.16739872 -0.025387326 -0.05289863 -0.11356696 -0.20696941 -0.0839843 0.050780952 0.13036026 0.03447914 -0.2008904 0.013054861 0.124796055 0.16568363 0.031951517 -0.025363704 -0.057269763 0.10340224 -0.0021333885
13 -0.13234946 -0.13481683 0.045584213 0.076768324 0.16946866 0.018079765 0.19455329 -0.102658436 -0.0030226274 0.05696721 -0.12528512 -0.06136872 -0.021519113 -0.064031705 0.13855615 -0.04799992 0.0667825 0.03114808 0.025386564 0.13965885 0.12365066 -0.13368396 0.06986854 0.18723309 -0.027964618 -0.12813376 0.038802963 0.09225732 -0.21688063 0.010089856 0.010270625 0.049056128 0.2354711 0.013109718 0.00614242 0.07533894 0.075834274 0.051674236 0.0024624167 -0.13577498 0.02528469 -0.034888282 0.1264019 0.19659238 0.048587907 0.061721932 0.07846139 -0.12174087 0.04127029 0.056684826 -0.18278666 -0.044120256 -0.094392814 -0.009569272 -0.10223335 0.05473497 0.040441953 0.018858874 0.21350467 0.05388727 -0.13304153 -0.03804905 0.20498449 -0.11482625 0.07543522 -0.046285637 0.074966766 0.0021206336 -0.063291326 -0.045247495 -0.040480472 -0.031463087 0.20409624 -0.023717204 0.08078813 0.049574144 0.005527731 -0.17276761 -0.23007897 0.050513364 -0.05579366 0.11917333 0.1713189 0.055955403 0.0043900004 0.015530798 -0.052020933 0.081517324 0.07505728 -0.03410581 -0.024145914 -0.09384078 0.075955085 -0.0024751308 -0.046366736 -0.13578339 0.035964508 -0.18178226 -0.17200486 0.027012005 -0.08227427 0.098327585 -0.019013902 0.00060036796 0.15768246 0.008915833 -0.055757683 -0.08264392 0.029427085 -0.055753138 -0.12139824 -0.08027698 -0.090393424 -0.11768364 -0.15290822 -0.13683362 0.08095147 0.16580871 0.057975054 -0.1579419 0.07539826 0.037864123 0.15164645 -0.01122844 -0.092664875 -0.05321055 0.03880305 -0.046548784
19 -0.10146774 -0.15260439 0.09120342 0.14090002 0.19867367 0.05106973 0.16927096 -0.091640845 -0.07024929 0.059464253 -0.1419655 0.025891088 -0.06379868 -0.0038869937 0.15937239 -0.11372645 0.018759003 -0.04592241 0.058661778 0.19220787 0.12388079 -0.13186076 0.102732666 0.18423599 -0.040883973 -0.15301932 0.05837605 0.07538347 -0.13634856 0.0027972208 -0.008129359 0.0625229 0.27701256 0.0035599812 -0.027470868 0.11923339 0.08869245 0.049158588 0.029414749 -0.11049309 0.04001569 0.007789705 0.0708716 0.1668628 0.07464068 0.07936147 0.011004073 -0.07303048 0.07742028 0.07670538 -0.118790455 -0.11569346 -0.14574873 -0.0076752175 -0.042407796 -0.015390697 0.061705135 0.008397265 0.17020486 0.16795148 -0.10992772 -0.10052577 0.21282117 -0.09100594 0.051252708 -0.10564583 0.059944496 0.029469714 -0.031699218 -0.043386165 0.03472706 0.020550186 0.24722931 -0.12200297 0.10360128 -0.0031817593 -0.0023005558 -0.09823657 -0.27640435 -0.01923232 -0.035812326 0.15214446 0.21847002 0.051042937 0.013864021 0.034571618 -0.068038546 0.076053575 0.03813287 -0.005832117 0.038382184 -0.07899595 0.116279125 0.050858714 -0.0016573827 -0.102016695 0.07752785 -0.14086455 -0.15567523 -0.009217177 0.00074732164 0.08045668 -0.035564467 -0.060827237 0.12352706 -0.002735904 -0.12525164 -0.14393532 0.10429821 -0.0578143 -0.18654983 -0.022016816 -0.049078446 -0.11607127 -0.21017036 -0.07600697 0.04900372 0.12296605 0.031999078 -0.21169473 0.004392683 0.13398805 0.17112288 0.04089468 -0.016334502 -0.05686712 0.11892108 0.0028072624
12 -0.13838142 -0.13184671 0.036950864 0.066274114 0.1698738 0.00043747894 0.20348927 -0.112044305 0.0055764467 0.06345336 -0.12331712 -0.07488019 -0.013873389 -0.07276668 0.14745969 -0.043060414 0.07762797 0.042782262 0.021903338 0.13005061 0.11946987 -0.14104685 0.064099565 0.19002911 -0.02590553 -0.13259172 0.041913386 0.10634334 -0.2357565 0.00656138 0.019634306 0.059987836 0.24079908 0.02345665 0.014675235 0.07653159 0.073358096 0.05873325 -0.003603438 -0.14423563 0.01973427 -0.0459682 0.13075651 0.20310766 0.03912154 0.05058634 0.08796392 -0.12597978 0.0355277 0.062671125 -0.2063524 -0.029539084 -0.1000705 -0.010796206 -0.116673514 0.07090525 0.038732316 0.02079931 0.23144272 0.042770065 -0.14539878 -0.026021548 0.21219766 -0.12590733 0.08099423 -0.03453547 0.08282064 -0.00066989457 -0.06879456 -0.052457355 -0.048029255 -0.038981542 0.199733 -0.008305209 0.0741196 0.0610113 0.0041175415 -0.18856281 -0.22415881 0.062246166 -0.064009786 0.12346869 0.1772832 0.05661101 -2.8189228e-05 0.015241024 -0.06172267 0.08612802 0.08666027 -0.03448401 -0.033537433 -0.09144504 0.071933396 -0.010637483 -0.049170457 -0.15057802 0.031801492 -0.18489946 -0.17521305 0.032533724 -0.08650719 0.11030465 -0.025409522 0.0009545794 0.16988613 0.0075557316 -0.04341574 -0.07530372 0.01184385 -0.056733392 -0.11406946 -0.087523766 -0.093139865 -0.13108765 -0.15158573 -0.1511716 0.08637124 0.18630642 0.06549114 -0.16319704 0.08237897 0.029885512 0.14860582 -0.018688412 -0.10178633 -0.06227866 0.030706665 -0.05405547
