34 128
34 0.08576527 0.07540864 -0.002051287 0.045771427 -0.07460296 0.07125143 -0.11653063 0.03487407 -0.23422176 -0.06116692 -0.022861721 -0.22772041 0.068088084 -0.021873005 -0.28693563 -0.00560423 0.104447864 0.12321564 0.29000485 -0.056102764 0.09159585 -0.28858235 -0.08251162 -0.015451966 0.14482169 -0.010557729 -0.056809083 0.013463777 0.010453654 0.053904753 -0.15228893 0.057985984 -0.089674264 -0.03655864 -0.080093175 0.028504677 0.048560683 0.11353038 0.13441278 0.040821534 -0.25123176 -0.012745327 -0.112109505 -0.16531375 0.04430994 0.04574638 -0.030309143 0.0059368815 -0.043417603 -0.037077367 -0.12412747 -0.20030376 0.07529879 0.13190763 0.048442807 -0.050447233 0.043224014 0.065727286 -0.09931393 0.068668455 0.081644386 -0.16864683 0.24583393 0.0007690066 -0.08097766 0.062482342 -0.015886996 -0.18341692 -0.0078052543 -0.015955258 -0.0018148978 0.02352627 0.14776297 0.0063895434 -0.14832121 -0.07039145 0.11916824 -0.060177468 -0.018025894 -0.16956592 -0.053326774 0.14793837 0.06524644 -0.034234215 0.008166406 0.17236508 -0.08513594 -0.004108073 -0.059639487 -0.14418662 0.3340828 -0.034282923 0.022029795 -0.11707507 0.16676745 0.030366594 0.038460676 -0.19195125 0.024980623 -0.1200832 0.19201832 -0.064819135 -0.101052895 -0.0073875 -0.014106441 0.003259436 -0.023316132 -0.14718813 0.07882147 -0.13908142 0.032031108 0.14582697 -0.0727498 0.052263964 0.05708473 0.042547084 -0.0068198987 -0.0069208397 0.08362346 0.09570625 0.09602748 0.16186509 0.041672517 0.0075914925 0.00939006 0.06821801 0.07416015 0.021928376
1 0.11816462 0.17028111 -0.104659066 0.20492598 0.064475484 0.00036776758 -0.11799194 0.23420413 -0.22589287 -0.1826146 -0.0111508425 -0.17092505 -0.05659306 0.057715613 -0.31367078 -0.02583507 0.115604974 0.014144814 0.2319076 -0.15318188 0.03615303 -0.27659518 -0.112965964 0.015374605 0.17926112 -0.05632548 -0.16869897 0.09185316 0.038602374 0.07139695 -0.07880159 0.21655716 0.029813685 0.04542958 -0.066255614 -0.0049955025 -0.03579715 0.15492691 0.17522216 0.16007823 -0.22063737 -0.0176143 -0.0458151 -0.147544 -0.01703955 0.045097522 0.010694724 -0.019612612 -0.028388284 -0.20062837 -0.1261649 -0.15810934 0.035249762 0.02632244 0.0476863 -0.102977775 -0.14196475 0.1821518 -0.008789575 -0.08784447 0.042970814 -0.24508476 0.11775466 -0.12665093 -0.025874356 -0.07415297 -0.059570543 -0.2414554 0.1266036 -0.024921041 -0.08433732 -0.06787188 0.027462116 -0.05434691 -0.08225403 0.07562118 0.016939115 -0.041031625 -0.017323047 -0.011530839 -0.15568618 0.056783393 -0.071327664 0.016737303 0.023408076 0.13851099 -0.1219335 -0.10355779 -0.12929039 -0.10300534 0.2918812 -0.053069208 0.21844696 -0.04281738 0.069658436 0.21300983 0.009258805 -0.13332911 0.027034085 0.0799596 0.18518241 -0.19550605 -0.06738302 0.045668595 -0.016421776 -0.09015051 -0.03456407 -0.12412 -0.051370673 0.05445411 0.11445819 0.110897444 -0.12582216 0.022759516 -0.031880148 -0.039479725 0.019222876 0.048424475 0.08291202 0.08726699 0.14168046 0.17605574 0.14113234 -0.08234707 0.018503096 0.01535456 0.016919192 -0.0054689967
33 0.07760457 0.067435436 0.0151351085 0.02160312 -0.08549012 0.07786867 -0.11142099 0.005238206 -0.24168202 -0.051056482 -0.017389046 -0.23601708 0.07794994 -0.032591444 -0.2821379 -0.005957083 0.108240955 0.13537982 0.29336482 -0.041294057 0.09765056 -0.2940171 -0.07514806 -0.021209659 0.13802913 -0.009255038 -0.047264796 0.0027958204 0.010184204 0.055046123 -0.16267188 0.040841904 -0.09962911 -0.051503498 -0.08139354 0.030234039 0.06796931 0.10847814 0.12976082 0.032735277 -0.25655717 -0.00970468 -0.122463785 -0.17059259 0.04686506 0.043420836 -0.043021124 0.007809856 -0.045595214 -0.019463535 -0.12918429 -0.20504627 0.08417815 0.14047661 0.050990347 -0.04656393 0.067957155 0.05921736 -0.10919115 0.08313246 0.08918576 -0.16376561 0.26225632 0.011581448 -0.086429335 0.07848392 -0.010171498 -0.17375445 -0.027484138 -0.014701662 -0.00047254824 0.03716017 0.15411828 0.009491321 -0.15455903 -0.08953334 0.12886748 -0.056215122 -0.022771345 -0.18616444 -0.043029282 0.15924406 0.07855983 -0.040541966 0.004757373 0.17425053 -0.08595355 0.012844733 -0.052976783 -0.148446 0.340677 -0.036457703 -0.004146922 -0.1279483 0.1781976 0.0131055545 0.039594438 -0.20098713 0.02611179 -0.1386391 0.1979484 -0.056324854 -0.099656686 -0.019856071 -0.012461615 0.011738738 -0.023801364 -0.15431139 0.0946162 -0.15609863 0.023488022 0.14703497 -0.06688527 0.053547464 0.06253164 0.05078549 -0.0127468025 -0.0107823 0.08066024 0.09875368 0.088868104 0.16207838 0.027244609 0.01520952 0.011801694 0.071666874 0.08988717 0.02168796
3 0.09576986 0.12051297 -0.048251044 0.11806752 -0.0027823346 0.03333639 -0.11620182 0.120594546 -0.22308555 -0.119796604 -0.013530245 -0.1944313 0.0057277833 0.010088107 -0.29057828 -0.01690517 0.10592273 0.068728924 0.2544808 -0.09941985 0.062108584 -0.28083202 -0.092819 -0.0031338856 0.1569492 -0.03773577 -0.11310192 0.04961699 0.023219164 0.066222854 -0.11294921 0.13396594 -0.029193245 0.0005614695 -0.0699627 0.009185442 0.009159821 0.12515293 0.15066776 0.09927222 -0.23002557 -0.017567914 -0.08163622 -0.15499355 0.008939068 0.0458772 -0.01112236 -0.0048054755 -0.030267507 -0.116733596 -0.12240989 -0.17129005 0.05657349 0.07795006 0.046169616 -0.0741245 -0.044243943 0.122239076 -0.049150076 -0.0075346343 0.060565006 -0.20004517 0.17732494 -0.06408099 -0.052891493 -0.0026182323 -0.0369143 -0.20009299 0.059398156 -0.020675795 -0.041781772 -0.023392685 0.09050043 -0.021772126 -0.113622956 0.0038523874 0.06777212 -0.047715265 -0.020084672 -0.08885168 -0.098968 0.09738151 -0.0025406734 -0.008663065 0.019118555 0.14942549 -0.104379885 -0.046075784 -0.0923341 -0.12330691 0.30183223 -0.052561875 0.11664469 -0.08208705 0.11747547 0.11427661 0.024433218 -0.1636004 0.030050749 -0.01971515 0.18646497 -0.12464961 -0.077838086 0.016021563 -0.01353063 -0.039098203 -0.027444802 -0.13800256 0.017355544 -0.03908832 0.06941356 0.12947096 -0.09433669 0.037234128 0.012015797 0.0034932515 0.0033138457 0.020059122 0.07794668 0.09110392 0.116134666 0.1644035 0.08746484 -0.032293543 0.0112148365 0.03828049 0.044324327 0.0034953537
2 0.104477204 0.115496874 -0.037306156 0.11268609 -0.014538031 0.04219842 -0.11850397 0.10710967 -0.23576553 -0.11139922 -0.007931639 -0.21533045 0.024465809 -0.0011003691 -0.30288118 -0.019301413 0.11258646 0.086440265 0.26498103 -0.09336763 0.07039303 -0.286675 -0.085244656 -0.007999117 0.15759736 -0.03761273 -0.102411695 0.049943194 0.026710305 0.061387293 -0.12022095 0.11976168 -0.04088393 -0.01056816 -0.06343844 0.0074606645 0.013485182 0.12819065 0.14516269 0.09213215 -0.23728216 -0.01661521 -0.09449913 -0.16290128 0.02131265 0.048310112 -0.022249255 -0.001377758 -0.033902984 -0.10756729 -0.120407805 -0.17260994 0.06231174 0.082624756 0.056094483 -0.07438897 -0.020950109 0.115110576 -0.058172274 0.005022727 0.06823553 -0.1944033 0.19996604 -0.04193113 -0.06605291 0.01296749 -0.03368758 -0.20573726 0.05086623 -0.021209024 -0.033695336 -0.0057267426 0.10779244 -0.01498575 -0.12985866 -0.012581092 0.08056025 -0.051069956 -0.021373343 -0.11232812 -0.096491724 0.11418697 0.0058733756 -0.007341852 0.012689193 0.15619256 -0.10658081 -0.036298286 -0.08777942 -0.1307354 0.32229924 -0.05451747 0.103872485 -0.08996979 0.13550434 0.10711381 0.029209329 -0.17436613 0.029475573 -0.045885965 0.19217119 -0.115262516 -0.08139795 0.0035342418 -0.010845477 -0.033212274 -0.034383297 -0.13799222 0.032245338 -0.061481066 0.0609874 0.13155553 -0.08762987 0.04739675 0.022712084 0.013115269 0.003251932 0.014744475 0.07736645 0.09493155 0.114840575 0.16171104 0.0714324 -0.02452241 0.014772938 0.043485813 0.058771268 0.012276686
32 0.07989847 0.07290602 0.008512528 0.037402153 -0.06134865 0.06984084 -0.124554776 0.013808244 -0.23670897 -0.0702218 -0.00070753176 -0.22858366 0.07164233 -0.03777198 -0.28721973 -0.0070601203 0.098375075 0.13026461 0.28884652 -0.05268468 0.091940776 -0.28231877 -0.07471951 -0.021368992 0.13659143 -0.02254165 -0.054039758 0.012228755 0.01308558 0.04766102 -0.14269632 0.057239156 -0.09694052 -0.048336685 -0.07361631 0.024092944 0.0588855 0.10682186 0.11771266 0.043705698 -0.23930737 -0.013410882 -0.1081842 -0.16716197 0.029226612 0.045000546 -0.034282047 0.008850439 -0.043980535 -0.036809217 -0.11289653 -0.18833183 0.06935556 0.12501977 0.057546973 -0.053284045 0.052015856 0.07158741 -0.100001685 0.0691085 0.07709711 -0.16282073 0.25098652 0.0069227796 -0.07743674 0.060688548 -0.028767139 -0.17429633 -0.017922835 -0.025445798 -0.0022778092 0.029671406 0.16213883 0.0007870299 -0.1579915 -0.07375764 0.116656244 -0.0629009 -0.015836714 -0.18335998 -0.054980315 0.14520073 0.06418722 -0.031048521 0.014455492 0.17247573 -0.090950124 0.00876179 -0.054934405 -0.13517769 0.3330696 -0.05704915 0.019965006 -0.12572852 0.17456831 0.014120144 0.040424492 -0.18589318 0.024849502 -0.12850738 0.20191501 -0.05655267 -0.096564695 -0.026627604 -0.005122231 0.01368285 -0.015928656 -0.15457222 0.09138998 -0.13925411 0.025381045 0.15080456 -0.065111324 0.05298658 0.06250083 0.039481256 -0.0053031975 -0.009341815 0.07542911 0.09639633 0.08558306 0.16719154 0.032205958 0.011718256 0.008772133 0.06865391 0.08691344 0.018151617
4 0.0957862 0.11202411 -0.03452254 0.10752283 -0.007950794 0.036563423 -0.11745741 0.105352685 -0.22670846 -0.11525531 -0.0055405684 -0.20851207 0.018018173 0.0050228364 -0.29301056 -0.014199309 0.10676366 0.08137605 0.25797865 -0.08907586 0.06775143 -0.27761582 -0.082168624 -0.006037358 0.14807102 -0.03667794 -0.09666417 0.041032333 0.022556558 0.062874794 -0.11411899 0.120377004 -0.037309892 -0.010198611 -0.06371534 0.010971078 0.019739645 0.12485211 0.14165665 0.09545987 -0.22808637 -0.017526837 -0.0867691 -0.15579484 0.012451025 0.040622313 -0.020729028 -0.0069111814 -0.037506152 -0.10205055 -0.115428716 -0.17032957 0.05608289 0.082800195 0.047695406 -0.06779468 -0.02456205 0.11713074 -0.055908483 0.0032920183 0.06365284 -0.1952794 0.19139218 -0.047105636 -0.05811055 0.008461164 -0.039314616 -0.20136304 0.048494913 -0.01938384 -0.037919734 -0.014139345 0.103535995 -0.019558739 -0.1250842 -0.009241009 0.07762731 -0.05053914 -0.017660018 -0.111414574 -0.093332194 0.109732 0.0081716 -0.008665805 0.0119521925 0.1528887 -0.107008256 -0.03948479 -0.087515734 -0.11967851 0.30631527 -0.056187805 0.09563411 -0.0891692 0.12815292 0.10012534 0.024389762 -0.16386345 0.03392001 -0.046078384 0.18806578 -0.1147384 -0.082317844 0.0012275672 -0.012848498 -0.032357503 -0.030093255 -0.13716565 0.026300471 -0.057057388 0.06210047 0.13075028 -0.089008294 0.04326007 0.024357798 0.008239102 0.0019054147 0.019272655 0.07477812 0.0943479 0.10521897 0.16073294 0.0733933 -0.021698492 0.0072754165 0.046535768 0.059164647 0.00742737
24 0.06532825 0.053869598 0.02680075 0.0063940105 -0.08734407 0.07538989 -0.11606266 -0.014337721 -0.23535332 -0.04267045 -0.009119674 -0.23357444 0.08886514 -0.046578333 -0.2741834 -0.002954654 0.10407615 0.14273468 0.29386237 -0.03928921 0.0973258 -0.2830632 -0.06764607 -0.02559892 0.1230917 -0.008839998 -0.0348203 -0.008291146 0.0128534315 0.041902862 -0.15973397 0.028035736 -0.1040441 -0.06402995 -0.0782797 0.032043718 0.07444935 0.09586606 0.11567953 0.028314846 -0.23813094 -0.015821975 -0.11934451 -0.17033832 0.043732796 0.046596404 -0.037525196 0.014361405 -0.046563637 -0.0042628204 -0.11950642 -0.197581 0.07705963 0.14323066 0.057490747 -0.043310866 0.07955706 0.049976353 -0.10830682 0.09909011 0.08703931 -0.1515629 0.26987976 0.02624069 -0.08612899 0.0787508 -0.01637333 -0.17303133 -0.03964943 -0.019759284 0.0102459965 0.039215185 0.17929797 0.013003786 -0.16338748 -0.09865956 0.13913894 -0.061591517 -0.016073639 -0.21023257 -0.040964946 0.16786458 0.09161148 -0.041799232 0.00765793 0.18373546 -0.089159206 0.02081587 -0.04504922 -0.14569408 0.34298256 -0.04885687 -0.019741124 -0.13828307 0.1912366 -0.008799947 0.041248374 -0.19567025 0.031159058 -0.16600719 0.20621085 -0.034171034 -0.105571285 -0.03505131 -0.014159284 0.022029482 -0.014785273 -0.16161267 0.11386464 -0.17936322 0.017303672 0.15454605 -0.06188864 0.051744618 0.08020407 0.049208213 -0.008244101 -0.019888278 0.076141804 0.09317704 0.075423256 0.17318372 0.018885382 0.018429918 0.006535611 0.07554411 0.09830014 0.026018258
14 0.10999814 0.124844536 -0.05959627 0.13625148 0.004675215 0.031398833 -0.1140429 0.14370976 -0.22346854 -0.1283271 -0.020501446 -0.19976075 0.0015240598 0.02641936 -0.29455918 -0.018824654 0.11577602 0.06241434 0.241733 -0.1068585 0.054985654 -0.2838535 -0.09498348 -0.0028647934 0.16258615 -0.034551848 -0.117684714 0.057761416 0.021660691 0.070516385 -0.112050086 0.1534324 -0.014744585 0.007918329 -0.066045 0.0069346493 0.0032218753 0.1327799 0.14914036 0.1139407 -0.22468618 -0.015015232 -0.07203229 -0.1493211 0.0076400572 0.048124194 -0.011761823 -0.0146768745 -0.03174218 -0.13268487 -0.12452913 -0.1661417 0.057167012 0.06716445 0.041209094 -0.07460219 -0.056364134 0.13472328 -0.04160388 -0.023947319 0.06000872 -0.21190108 0.16502877 -0.06583143 -0.05338431 -0.017181996 -0.04030863 -0.20822646 0.06780025 -0.015539922 -0.051454686 -0.028981395 0.07407977 -0.027110185 -0.10736711 0.01565963 0.059897993 -0.03696495 -0.021202898 -0.07792712 -0.10669383 0.09439491 -0.015331324 0.0002732611 0.017242214 0.14652061 -0.10885396 -0.056391098 -0.0978794 -0.11781402 0.29782864 -0.04815655 0.1343981 -0.074992865 0.10361898 0.1394722 0.02248881 -0.16092946 0.032874186 -0.0020927286 0.18781373 -0.13852164 -0.07394729 0.017284073 -0.014397162 -0.048931133 -0.03236371 -0.12777096 0.0017608022 -0.016526364 0.077036 0.11819213 -0.09927992 0.03806988 0.0030596447 0.0021023215 0.0014264183 0.024999974 0.08185153 0.09195633 0.11617793 0.16033976 0.08780835 -0.040288977 0.011819925 0.036703292 0.043391988 -0.0020857856
9 0.098055474 0.113231935 -0.04802231 0.11050952 -0.007190903 0.030048978 -0.11412365 0.11416981 -0.22871175 -0.11129942 -0.013150026 -0.19597486 0.016876142 0.0070304843 -0.2808753 -0.022498643 0.11224952 0.07052567 0.25275916 -0.096486755 0.058953684 -0.27844903 -0.08750561 -0.0052665374 0.15046823 -0.03902673 -0.103098474 0.04752267 0.027440717 0.060071386 -0.112347625 0.12985078 -0.027037079 -0.005022517 -0.06359685 0.008325046 0.016396582 0.12648992 0.14593163 0.09290504 -0.22478575 -0.016522512 -0.07910516 -0.14919622 0.01628931 0.03862633 -0.01857813 -0.0043867957 -0.027558533 -0.110763445 -0.116273575 -0.16801311 0.057427373 0.077369705 0.04435223 -0.07060967 -0.04060307 0.12126747 -0.050100595 -0.004565293 0.06784364 -0.20034552 0.1812403 -0.05824782 -0.049913242 0.0014547018 -0.03797123 -0.20134066 0.055602744 -0.016128091 -0.046733078 -0.02046888 0.09082972 -0.025450144 -0.12030682 -0.004265476 0.06599572 -0.046414636 -0.01953642 -0.09911595 -0.10442514 0.100850195 -0.0020696572 -0.007106199 0.019128883 0.15613532 -0.10139646 -0.043786295 -0.091930725 -0.12571499 0.30627763 -0.054842778 0.11036196 -0.08706532 0.1267728 0.11015783 0.029081779 -0.15840116 0.027232887 -0.0316977 0.18830203 -0.120305575 -0.083772406 0.0065121544 -0.015767794 -0.043688606 -0.02586844 -0.13845181 0.022925375 -0.049337268 0.06660952 0.12459613 -0.089490876 0.04073545 0.016888864 0.007481437 -0.00013788842 0.0187259 0.07925723 0.08848955 0.113058574 0.16636814 0.084696285 -0.032350287 0.012817461 0.04678056 0.050061584 0.007708361
30 0.07557851 0.06520764 0.0048022023 0.034749683 -0.06602683 0.069511555 -0.115112804 0.021978809 -0.23211268 -0.05831575 -0.013911044 -0.22875434 0.068006605 -0.031721286 -0.278493 -0.013337063 0.10184963 0.12501894 0.27844363 -0.054008663 0.0847053 -0.28447258 -0.07470326 -0.025177078 0.1343139 -0.017538939 -0.047468014 0.016294813 0.014615578 0.05250808 -0.15202662 0.05579532 -0.08454195 -0.0490689 -0.073364794 0.019291423 0.058475405 0.10300551 0.12642786 0.04505148 -0.24075626 -0.011147771 -0.11507783 -0.16364187 0.03491711 0.045110922 -0.038500454 0.00846719 -0.04100129 -0.03901405 -0.12302896 -0.19285744 0.07809644 0.12595537 0.04663403 -0.050580695 0.05209987 0.07052428 -0.09172225 0.07286906 0.08199145 -0.16337387 0.2431208 0.006057116 -0.086501 0.060031746 -0.012973362 -0.17647131 -0.011371223 -0.020839816 -0.008691247 0.028804746 0.14546081 0.0013493786 -0.14690936 -0.06658533 0.11396717 -0.058240075 -0.021397369 -0.16999322 -0.05133398 0.15137336 0.067123055 -0.027815545 0.011929647 0.17518896 -0.0843579 0.0039768536 -0.058086783 -0.13589321 0.3280746 -0.044750683 0.012395839 -0.12467832 0.171372 0.028943785 0.03867417 -0.19171742 0.032183893 -0.123930745 0.18876734 -0.066732556 -0.09766594 -0.018176889 -0.008192542 0.0010318907 -0.023510477 -0.15325196 0.0825802 -0.13953415 0.032058954 0.14670326 -0.069326304 0.047774874 0.05988054 0.04350552 -0.005239421 -0.004590668 0.0785827 0.094882786 0.08989397 0.16447707 0.036308937 0.008583047 0.009035549 0.06423322 0.08331759 0.021273404
28 0.06198252 0.041608874 0.032682694 0.0028412363 -0.08807829 0.083417006 -0.115005374 -0.026573075 -0.23152317 -0.037635274 -0.004430158 -0.23386665 0.09478099 -0.050847698 -0.26962912 -0.0063528917 0.08974559 0.14261888 0.2897959 -0.02960751 0.09481648 -0.2722012 -0.061183438 -0.030679485 0.11740598 -0.007558161 -0.02220649 -0.009856737 0.013395724 0.04100476 -0.15232424 0.016627349 -0.11566715 -0.066941544 -0.07368215 0.0266136 0.074315496 0.092819825 0.10590452 0.019330574 -0.23805192 -0.013078007 -0.12011183 -0.1665523 0.040062208 0.044838548 -0.046882972 0.011154045 -0.051720988 0.0044076727 -0.11442443 -0.19021991 0.075400874 0.14902939 0.056636877 -0.039718024 0.09336314 0.034931816 -0.10771465 0.09964258 0.07859017 -0.13659553 0.26918203 0.030167118 -0.08620339 0.08968816 -0.017603919 -0.15491807 -0.045018345 -0.023210762 0.014474075 0.04960542 0.17518166 0.0149363 -0.15709783 -0.106981345 0.13270171 -0.065719396 -0.012214943 -0.20399092 -0.02765285 0.1588485 0.095254734 -0.03985038 0.008849143 0.1685794 -0.07512017 0.032696158 -0.038466375 -0.13526307 0.32149112 -0.0472217 -0.03191362 -0.13546833 0.18532375 -0.024336483 0.045003623 -0.19004095 0.024472166 -0.17012563 0.19142759 -0.020952212 -0.098483115 -0.03341014 -0.0066359164 0.034999937 -0.011597312 -0.1554678 0.11449846 -0.17775567 0.009897907 0.14995213 -0.047435936 0.052341536 0.08296596 0.057733465 -0.011057416 -0.015321057 0.0754867 0.09267414 0.07189401 0.15466125 0.013041526 0.02883924 0.0038611444 0.07579364 0.09668285 0.024282414
8 0.11850382 0.15642819 -0.087794125 0.18031397 0.048235506 0.0033590272 -0.10707219 0.20308124 -0.21965545 -0.16503109 -0.008933515 -0.17870016 -0.041141625 0.04679564 -0.2974168 -0.023036003 0.11364918 0.03016374 0.21960256 -0.13705346 0.037747543 -0.2747599 -0.103092775 0.008024627 0.17323029 -0.048083875 -0.15272664 0.084822856 0.03440741 0.074762136 -0.0823556 0.1985673 0.014245137 0.030916471 -0.05427836 -0.006325479 -0.03028242 0.13996853 0.15721926 0.14730625 -0.21573043 -0.018099364 -0.058341503 -0.14294474 -0.0012991248 0.0463709 0.0037790425 -0.020984132 -0.024602903 -0.18024416 -0.11714027 -0.15375872 0.03963638 0.033359464 0.046897493 -0.08899564 -0.10948116 0.16927995 -0.019674884 -0.06875765 0.0434812 -0.22820964 0.1295205 -0.10822608 -0.03424125 -0.055490725 -0.0528045 -0.22197914 0.10960039 -0.015228119 -0.07412879 -0.057144083 0.03756686 -0.04041974 -0.09075272 0.0623335 0.027695658 -0.03518821 -0.017132582 -0.030692825 -0.139054 0.070260644 -0.056501873 0.015684761 0.01769077 0.13384987 -0.11552967 -0.09051617 -0.11892487 -0.107609935 0.280538 -0.050979197 0.19670151 -0.047944598 0.07379916 0.1930377 0.015744029 -0.14063849 0.025341144 0.060967844 0.17212489 -0.17278814 -0.06395986 0.03533108 -0.013148354 -0.07980175 -0.040873367 -0.11653121 -0.038942736 0.04192998 0.093493246 0.11044243 -0.11633835 0.026760234 -0.02838798 -0.021196745 0.008557654 0.042250723 0.079336464 0.08533855 0.1335987 0.16258031 0.115327135 -0.066600926 0.016204327 0.017947707 0.020905895 -0.009610852
6 0.108720064 0.16288671 -0.09338024 0.19393845 0.07162659 -0.012718298 -0.107641794 0.2194118 -0.2117941 -0.16812661 -0.0024370726 -0.14808764 -0.0505369 0.050633054 -0.27817798 -0.027336985 0.11510214 0.003481047 0.21904217 -0.15612414 0.027606647 -0.2715821 -0.107913904 0.014513295 0.17281279 -0.06016662 -0.16865101 0.08071975 0.04024369 0.06906374 -0.072441295 0.21862286 0.036086585 0.046419248 -0.07001661 -0.0030712085 -0.029357 0.13935882 0.16331108 0.15679856 -0.20928739 -0.012788383 -0.032200515 -0.14134906 -0.015800076 0.039213676 0.014354816 -0.022954829 -0.01501546 -0.19093895 -0.119984955 -0.15050775 0.018109573 0.022208972 0.043498803 -0.0962944 -0.14928547 0.18498237 -0.019708823 -0.08705451 0.049289342 -0.23745047 0.10731918 -0.12109848 -0.011052314 -0.0812149 -0.06004411 -0.22094075 0.12084391 -0.018413862 -0.08945962 -0.075412795 0.02627704 -0.058863614 -0.07727011 0.070177734 0.012011075 -0.043799106 -0.018126046 -0.014516956 -0.15730625 0.056597736 -0.07170578 0.013336932 0.03154313 0.13713902 -0.11815165 -0.10086236 -0.12582736 -0.10306335 0.28552103 -0.05447025 0.21709307 -0.04145742 0.07834535 0.20741414 0.006359864 -0.1364504 0.01973461 0.07281502 0.18600377 -0.1852005 -0.07282397 0.044129167 -0.0191826 -0.09063976 -0.02257154 -0.13289705 -0.048273195 0.056518447 0.111502156 0.11432295 -0.120073244 0.020981448 -0.03284535 -0.03457623 0.01833059 0.043143168 0.07821005 0.080249384 0.13564308 0.18025708 0.13771278 -0.08846798 0.016786093 0.018793194 0.014421257 -0.004924415
7 0.11619634 0.16439313 -0.104064435 0.20294957 0.07594859 -0.011786969 -0.10722757 0.23477586 -0.21888727 -0.16853225 -0.006002805 -0.15095457 -0.054743495 0.053775664 -0.28089133 -0.023328237 0.11692948 0.0010949564 0.22086366 -0.16423427 0.030586515 -0.27889106 -0.10847164 0.020576207 0.17547219 -0.06306517 -0.17570688 0.083050504 0.03650068 0.06352619 -0.077116564 0.22759835 0.04055885 0.047241148 -0.073391825 -0.009084245 -0.03913184 0.145723 0.17064714 0.1596351 -0.21427532 -0.017755324 -0.028487707 -0.14257391 -0.021397738 0.03863774 0.01572296 -0.024399817 -0.015462812 -0.2004888 -0.12316381 -0.15306313 0.023074146 0.02213412 0.04442965 -0.09906434 -0.16117741 0.19228563 -0.016307743 -0.09792579 0.045658916 -0.24586722 0.10426702 -0.13021936 -0.005308868 -0.08812525 -0.05597128 -0.23744676 0.12291745 -0.023831284 -0.09402358 -0.07718647 0.027819855 -0.06189187 -0.07604869 0.081553444 0.009139204 -0.04309296 -0.020645965 -0.0108303465 -0.16647035 0.052274566 -0.0749982 0.018157082 0.03062771 0.14334138 -0.11823458 -0.10536635 -0.12919968 -0.10979525 0.2968069 -0.058399737 0.23049755 -0.03765624 0.07668322 0.21864414 0.007821446 -0.14006995 0.02358057 0.08347085 0.19405638 -0.19530752 -0.07588824 0.049516317 -0.019960037 -0.09751694 -0.025364123 -0.13773745 -0.05548591 0.059807796 0.11942493 0.114188865 -0.12855698 0.015927115 -0.03491351 -0.039827373 0.027484415 0.049373463 0.07963597 0.081499025 0.13717663 0.18403153 0.14697078 -0.09946382 0.0175253 0.02565668 0.013582728 -0.012203819
25 0.05704541 0.04111537 0.044731084 -0.0064458107 -0.08408101 0.087828755 -0.12941812 -0.04556265 -0.23394988 -0.04144482 0.0073938747 -0.23725213 0.09845864 -0.06620414 -0.28608492 0.0033331846 0.09918613 0.15728909 0.3111091 -0.030043915 0.10494197 -0.27522144 -0.07138799 -0.021492112 0.12594543 -0.014986163 -0.014764086 -0.012551039 0.016205376 0.0366326 -0.15369822 0.015681777 -0.12601593 -0.06744445 -0.086162366 0.033592302 0.083454676 0.09566414 0.1037338 0.021797583 -0.24427776 -0.015951771 -0.12576573 -0.1756994 0.036595963 0.04060154 -0.03845929 0.013683144 -0.06007599 0.014933264 -0.10488007 -0.19620456 0.08106355 0.16098574 0.067296974 -0.045390308 0.094667695 0.038743958 -0.11821401 0.11100624 0.08036017 -0.1413112 0.29217896 0.03788027 -0.086832136 0.096233055 -0.027537877 -0.15511419 -0.056435816 -0.027525637 0.027091732 0.050935846 0.1978697 0.010555872 -0.17294656 -0.108987436 0.14711998 -0.074911185 -0.008084377 -0.2308614 -0.032312598 0.16208276 0.09867875 -0.047059886 0.006819209 0.18532462 -0.07755603 0.042313747 -0.041678865 -0.13438237 0.34418938 -0.05888642 -0.03293637 -0.1483985 0.20460801 -0.042644944 0.040890846 -0.20054947 0.029717976 -0.18266031 0.20494324 -0.016450323 -0.1067211 -0.04616561 -0.005494225 0.04745335 -0.00495463 -0.16444148 0.12761356 -0.19541058 0.00012588217 0.15910874 -0.05262572 0.055942893 0.09491308 0.056496374 -0.0038747627 -0.024177222 0.07880063 0.09425186 0.06569516 0.17422093 0.010239728 0.034710646 0.0051424424 0.0859729 0.099417426 0.033608362
29 0.08585365 0.07903832 -0.0042080544 0.055027 -0.048962798 0.057152808 -0.114985816 0.038459953 -0.2265597 -0.078044586 -0.015338663 -0.22331639 0.058255672 -0.025801105 -0.28208777 -0.0094128 0.10719733 0.11130208 0.27869567 -0.061984397 0.08329121 -0.28139475 -0.080991 -0.020727908 0.1412998 -0.02478603 -0.061984807 0.020026365 0.014955173 0.05641454 -0.14265455 0.07080344 -0.07869935 -0.03400457 -0.07554337 0.019115295 0.044850033 0.10888031 0.13115494 0.057494707 -0.23951411 -0.015562053 -0.10696148 -0.16532794 0.032147452 0.04141224 -0.032136988 0.0058795456 -0.04102241 -0.05620775 -0.11803257 -0.18400963 0.069589876 0.11645988 0.05506763 -0.057135478 0.02567521 0.0820856 -0.08428708 0.052603412 0.075231224 -0.17269139 0.2289318 -0.0064902296 -0.07340442 0.04787605 -0.025689956 -0.18268767 0.0017323524 -0.016323602 -0.013021962 0.018746778 0.14305873 -0.007074276 -0.14345291 -0.05436281 0.110079154 -0.05896907 -0.018378733 -0.15972415 -0.07126205 0.14116901 0.04935781 -0.028357914 0.009042287 0.17313865 -0.0970788 -0.0051688976 -0.062180053 -0.13870959 0.32250008 -0.05222524 0.04400574 -0.108591564 0.1573537 0.044330537 0.033604003 -0.18208803 0.03247568 -0.10488508 0.19169581 -0.07504214 -0.09549635 -0.014844953 -0.014353842 0.000643476 -0.021158498 -0.14873882 0.067213 -0.11678611 0.034681838 0.14486088 -0.070820585 0.050214536 0.047240313 0.035170477 -0.00073365204 -0.0028844771 0.07502044 0.092606924 0.092078514 0.15860371 0.04726453 -0.00042838615 0.008118034 0.060722187 0.07221204 0.01800928
26 0.07123446 0.06747402 0.011575557 0.041841 -0.04955107 0.06105673 -0.122930154 0.019599456 -0.22730862 -0.070096135 0.0012989813 -0.22100158 0.062327255 -0.033884294 -0.2809417 -0.0056365235 0.092840515 0.11867011 0.2777045 -0.0513015 0.08974551 -0.26802763 -0.07122474 -0.018334882 0.13170251 -0.026137043 -0.05274618 0.012433879 0.016203154 0.043381594 -0.13270488 0.05721174 -0.08556627 -0.040671483 -0.07670182 0.016941577 0.052376613 0.101168826 0.11671402 0.05245482 -0.23429586 -0.017533608 -0.10777014 -0.16212511 0.026659036 0.040845755 -0.03028095 0.0061201574 -0.048132956 -0.034424927 -0.106162295 -0.17581135 0.06291432 0.115507945 0.059112534 -0.058101743 0.045819968 0.068263836 -0.09495899 0.06389778 0.0688158 -0.15398127 0.24203351 0.0025891154 -0.07210118 0.050283317 -0.032113932 -0.17117867 -0.012198999 -0.027067225 -0.0020252685 0.026301024 0.1493637 -0.0010845133 -0.14903466 -0.06681746 0.11296606 -0.06421554 -0.0077976077 -0.17076695 -0.055987764 0.13247605 0.057090685 -0.02471123 0.015384125 0.15899904 -0.08998539 0.006720962 -0.058809426 -0.12240027 0.31423226 -0.055274073 0.024001474 -0.11233706 0.16078377 0.01737074 0.031870086 -0.1727584 0.026520178 -0.118059106 0.18688738 -0.053038422 -0.08640743 -0.02448229 -0.0089892745 0.012855384 -0.014161453 -0.1466761 0.07800347 -0.12705672 0.02749639 0.14506768 -0.061446216 0.0463283 0.06035018 0.037269015 -0.0019917593 -0.009476035 0.076512784 0.09497563 0.07932162 0.16377698 0.032660153 0.0063287667 0.0019331942 0.06402422 0.07686147 0.02390777
31 0.089718714 0.078405745 -0.0011932258 0.052295133 -0.060807563 0.06666991 -0.11209849 0.038130987 -0.23373915 -0.0697166 -0.013966693 -0.23165393 0.062496237 -0.02781722 -0.28632113 -0.009067359 0.10449991 0.116925225 0.28012863 -0.05814336 0.0824274 -0.28541684 -0.07390453 -0.017649023 0.14508061 -0.019294906 -0.061820455 0.020044314 0.014746947 0.05447024 -0.14852162 0.06762193 -0.08326965 -0.042590484 -0.07093149 0.018429765 0.050595876 0.109301835 0.13091178 0.056666657 -0.23908602 -0.01474788 -0.11054133 -0.16111481 0.03852222 0.04244371 -0.030965503 0.008368593 -0.039947633 -0.051634897 -0.12152919 -0.18457423 0.076942235 0.11750297 0.052522052 -0.057600208 0.042145953 0.078303725 -0.09097453 0.058885314 0.07910748 -0.16811705 0.24289386 -0.00410254 -0.080601096 0.05651084 -0.019050412 -0.18297322 0.0024284194 -0.01892261 -0.010047863 0.019896345 0.14437258 -0.00017932043 -0.15153325 -0.06301532 0.109341875 -0.05535031 -0.020358913 -0.16347454 -0.06051224 0.14583947 0.054761887 -0.026510201 0.0069141635 0.17460632 -0.0915466 -0.003056617 -0.066726595 -0.13994831 0.3275066 -0.044998333 0.03581447 -0.11403867 0.16375293 0.03796967 0.039954428 -0.18871115 0.034244195 -0.11119079 0.19281252 -0.076502256 -0.096470326 -0.011945426 -0.008150629 -0.0022613686 -0.026742175 -0.14933474 0.072762616 -0.1270884 0.032501206 0.14432107 -0.07221385 0.056232788 0.05187678 0.035993837 -0.0047748107 -0.0033377244 0.0814305 0.09552559 0.09803596 0.16279489 0.042097744 0.0063243103 0.007825532 0.06454971 0.07718961 0.017196309
11 0.11151439 0.16890971 -0.10587604 0.20532136 0.07105804 -0.014058779 -0.108176894 0.22946158 -0.21646887 -0.16901228 -0.00800552 -0.15935686 -0.054905713 0.05480637 -0.28830138 -0.029492648 0.11900544 -0.00017629936 0.21954633 -0.15704226 0.029468028 -0.27283368 -0.10744347 0.013799087 0.17443037 -0.058037985 -0.174911 0.09032619 0.038670804 0.071071535 -0.0745168 0.22128417 0.03948455 0.048503995 -0.0668853 -0.010785985 -0.039555274 0.14889824 0.16590557 0.16215521 -0.21430582 -0.017053315 -0.031872053 -0.14030859 -0.013975043 0.039899223 0.006416045 -0.023253545 -0.0147444215 -0.20137806 -0.12266197 -0.1531925 0.022339016 0.02542407 0.03842787 -0.100289 -0.15578783 0.18577157 -0.012409599 -0.095517926 0.046694677 -0.23874542 0.10017523 -0.12502617 -0.010214986 -0.08392903 -0.056479946 -0.23831433 0.13247828 -0.018669754 -0.08964275 -0.07965904 0.026451996 -0.06083193 -0.07721062 0.08058167 0.005288888 -0.04325298 -0.020301849 -0.0072368477 -0.16361727 0.057112716 -0.074301794 0.017674124 0.030236507 0.13741258 -0.12209682 -0.10576861 -0.12945008 -0.102059506 0.29402992 -0.05635584 0.23192166 -0.043412905 0.0744881 0.21793254 0.0075699897 -0.1397731 0.023981284 0.07712287 0.19239289 -0.20072103 -0.07273823 0.049253568 -0.023554107 -0.096917324 -0.026293458 -0.13183226 -0.05721347 0.06006932 0.12072074 0.117090896 -0.12400828 0.019144349 -0.03438755 -0.03650205 0.025301496 0.051036563 0.078485996 0.08522638 0.14351921 0.17804171 0.14391755 -0.08993644 0.016313925 0.020864084 0.011777902 -0.009646712
5 0.11549278 0.17560004 -0.11280094 0.21308745 0.085400924 -0.022833675 -0.10862344 0.25005338 -0.21366337 -0.18316734 -0.0069407756 -0.14292131 -0.061537564 0.06672164 -0.2798342 -0.030858409 0.1138633 -0.010273602 0.21805592 -0.16744995 0.029585052 -0.27907655 -0.10944202 0.022974694 0.18250136 -0.067430735 -0.18359192 0.089155786 0.035933796 0.068463236 -0.07311223 0.24167006 0.048513584 0.055253383 -0.06586877 -0.00834511 -0.044860717 0.14880675 0.1754335 0.16920927 -0.21300675 -0.018026575 -0.02140846 -0.1422655 -0.024454456 0.0446167 0.015353227 -0.021119826 -0.011487214 -0.21572502 -0.12520656 -0.151208 0.016160434 0.017193845 0.044061743 -0.09676103 -0.17795427 0.1991809 -0.00552597 -0.107982345 0.045723367 -0.25368926 0.0880903 -0.13807231 -0.0015471154 -0.09864023 -0.061166078 -0.23803638 0.13833156 -0.018554587 -0.09839329 -0.0868662 0.01955474 -0.061818972 -0.06923919 0.09395174 0.00039097213 -0.038458835 -0.017954424 0.005602076 -0.17362164 0.0438938 -0.085480936 0.024133198 0.031109927 0.14209168 -0.12249291 -0.113192745 -0.1368167 -0.103189215 0.2859406 -0.059554804 0.24872635 -0.034071922 0.06383159 0.23154709 0.0031592012 -0.13587357 0.022448495 0.102706976 0.19096234 -0.20953065 -0.072504826 0.057388667 -0.023101585 -0.09862654 -0.027997704 -0.1340585 -0.06294708 0.074957915 0.12748703 0.10937143 -0.12688558 0.014587249 -0.04571958 -0.045021895 0.024780994 0.051236857 0.07995134 0.08295196 0.1459786 0.18371531 0.1586183 -0.10566219 0.021466356 0.01958059 0.0031584378 -0.012963671
20 0.090322375 0.08465156 -0.015120403 0.06920454 -0.046944715 0.06010921 -0.11662964 0.053291637 -0.2292408 -0.08433334 -0.015629677 -0.22129568 0.049543954 -0.011233086 -0.2888926 -0.009441275 0.106926955 0.11180882 0.27513888 -0.06539965 0.0796277 -0.2865657 -0.07928928 -0.0177682 0.14451298 -0.023710929 -0.07307476 0.024768436 0.017817896 0.057335958 -0.14023367 0.07881776 -0.0731225 -0.033633657 -0.07231204 0.0176704 0.04077145 0.1112576 0.13121068 0.062842235 -0.23476903 -0.013269004 -0.104127385 -0.15997054 0.034358017 0.04461203 -0.0265176 -0.00064973783 -0.04025467 -0.06469163 -0.12230809 -0.18556677 0.06911748 0.110520296 0.04919995 -0.056941643 0.021003572 0.08887346 -0.08113218 0.04024805 0.07008712 -0.17782943 0.22641295 -0.020291552 -0.07431704 0.04278788 -0.024356712 -0.18697882 0.009827442 -0.021700397 -0.019496018 0.009048739 0.1252023 -0.0062151854 -0.14017119 -0.05178914 0.098367855 -0.052779693 -0.01594749 -0.14235051 -0.06613062 0.13615718 0.03988702 -0.0253797 0.012630477 0.1659058 -0.095391616 -0.015000971 -0.07062294 -0.1351597 0.31727865 -0.04292795 0.049427588 -0.1039153 0.15082765 0.05283387 0.033153325 -0.178919 0.030423896 -0.08701297 0.18557455 -0.0818241 -0.091797136 -0.003841235 -0.010489162 -0.006080753 -0.026182463 -0.14330687 0.06314204 -0.10255406 0.03799838 0.13751332 -0.076875076 0.049087636 0.045840275 0.03087052 -0.008883583 0.0022692091 0.08070033 0.09599845 0.09837917 0.15637024 0.04519206 -0.006627934 0.009964997 0.0590019 0.073586956 0.0115523245
27 0.07716174 0.070690334 0.010579225 0.033095818 -0.07550794 0.06897049 -0.11569942 0.019444836 -0.24271007 -0.059385054 -0.017170787 -0.2363476 0.077640094 -0.033882882 -0.2885217 -0.009891533 0.10696759 0.13193491 0.29466912 -0.05351619 0.0937167 -0.2886233 -0.07495402 -0.025178153 0.13702255 -0.013936441 -0.04959786 0.009011653 0.013555959 0.049028136 -0.15570131 0.048617758 -0.08926978 -0.0483287 -0.08315347 0.025435317 0.058532145 0.109929115 0.124910876 0.042523444 -0.2511436 -0.017329486 -0.11297891 -0.1727217 0.037317492 0.04191358 -0.033233047 0.010864824 -0.03949005 -0.028100956 -0.12274576 -0.20007962 0.076042935 0.13903028 0.052689023 -0.045543723 0.05541387 0.06647471 -0.09960836 0.07288337 0.088189185 -0.16642053 0.24989335 0.008648104 -0.083126314 0.06664811 -0.015418175 -0.18285175 -0.0183755 -0.0204182 -0.0043901517 0.03373755 0.16122335 0.0034804454 -0.15736847 -0.075000055 0.12519456 -0.059529003 -0.015822344 -0.1806714 -0.057753187 0.15613565 0.07337015 -0.032234732 0.014180795 0.18300766 -0.089891136 0.0026392946 -0.057272382 -0.14706878 0.34299442 -0.050255198 0.010852447 -0.13045567 0.18100229 0.020066245 0.039883725 -0.19285788 0.030847669 -0.13514051 0.19682343 -0.05849712 -0.10046618 -0.019565707 -0.014289579 0.00592324 -0.017069189 -0.15554103 0.09289781 -0.15088363 0.027651234 0.1505169 -0.065652065 0.051936004 0.065793656 0.042821933 -0.0050555784 -0.008413803 0.08364488 0.0938759 0.091809 0.16621722 0.03628808 0.005620991 0.013330472 0.07482716 0.08167319 0.02384861
10 0.099878594 0.10841913 -0.032821596 0.101223715 -0.024036936 0.041574422 -0.11103078 0.098678276 -0.22508092 -0.10538901 -0.018005095 -0.20692232 0.02617003 0.0034488016 -0.2846697 -0.012866309 0.10635682 0.08416379 0.25480205 -0.09132904 0.06373688 -0.2843653 -0.082238846 -0.010560335 0.15143491 -0.033239912 -0.09632788 0.03883064 0.02264606 0.05827526 -0.12024199 0.11574071 -0.038959805 -0.0125310905 -0.06399383 0.013655232 0.0202034 0.11951155 0.14331064 0.08329408 -0.22553173 -0.014179273 -0.08721255 -0.15438652 0.023022555 0.04119029 -0.018284742 -0.006803709 -0.027271727 -0.09452911 -0.12192658 -0.17167912 0.06045961 0.08868662 0.043609954 -0.06247251 -0.017340586 0.11365908 -0.06399312 0.009841925 0.06980874 -0.18882787 0.19470078 -0.041248556 -0.061087422 0.015300423 -0.033720214 -0.19625145 0.042998165 -0.013227998 -0.033497646 -0.009961717 0.10226139 -0.017941792 -0.121219754 -0.01899568 0.07721545 -0.04843788 -0.023148581 -0.113580406 -0.09357755 0.11438965 0.012145174 -0.008783635 0.010603885 0.15313114 -0.10496625 -0.037034746 -0.08631802 -0.12938543 0.30057934 -0.042555407 0.09773812 -0.09032607 0.123416625 0.094522335 0.027231377 -0.17366321 0.03025959 -0.04820701 0.18909606 -0.11383101 -0.079390906 0.008235066 -0.009163005 -0.029779704 -0.025356792 -0.13989182 0.03471376 -0.0606037 0.058858886 0.13180023 -0.089260265 0.042285603 0.02078598 0.010384718 -0.003499849 0.014826215 0.08016477 0.086522035 0.11052943 0.15494229 0.06548733 -0.020533118 0.009120204 0.04476521 0.0559805 0.0050507407
15 0.08859679 0.09068926 -0.010969546 0.067993514 -0.045589842 0.049716167 -0.11303141 0.06179833 -0.23295513 -0.08131411 -0.01650374 -0.21613349 0.05055794 -0.018344842 -0.27833936 -0.012007503 0.108457126 0.1038516 0.27403572 -0.06948354 0.07812975 -0.28636372 -0.08208845 -0.014492738 0.13945508 -0.02160666 -0.074861936 0.024281086 0.01896433 0.05725214 -0.14197521 0.08203576 -0.065535806 -0.032612193 -0.075620756 0.021066613 0.04103266 0.11612329 0.13451566 0.061768405 -0.23405361 -0.017953845 -0.100463405 -0.16241969 0.032951783 0.04123403 -0.02859165 0.0033841808 -0.03516749 -0.06563026 -0.12564449 -0.18133384 0.06407174 0.11114665 0.047680076 -0.055099793 0.014262505 0.088748366 -0.07903985 0.043284565 0.07444265 -0.17852315 0.22097857 -0.020289121 -0.06683099 0.036630087 -0.019311804 -0.18883793 0.015472821 -0.01394855 -0.020705419 0.0071435743 0.12610246 -0.0043960903 -0.14081308 -0.0487417 0.09735668 -0.055442598 -0.025205348 -0.14680812 -0.076539256 0.13783233 0.042873804 -0.022183398 0.009593531 0.17032944 -0.094545916 -0.015986051 -0.066898316 -0.13812776 0.32261652 -0.045250043 0.050240595 -0.104638 0.15408657 0.062000465 0.036546588 -0.18037267 0.028209452 -0.0919764 0.19372083 -0.08378991 -0.08897496 -0.0077186986 -0.011878497 -0.014833577 -0.019927185 -0.1496905 0.05933334 -0.10840076 0.04687279 0.14042641 -0.07788876 0.046821874 0.04233387 0.02387979 -5.4811884e-05 0.00033725426 0.07685213 0.09449195 0.09864868 0.16832241 0.052366003 -0.007453803 0.014925269 0.061862566 0.06711643 0.01418567
18 0.10336678 0.12112154 -0.052272033 0.123850346 -0.0003540048 0.033362515 -0.12020944 0.13201848 -0.23103307 -0.12715127 -0.0131171355 -0.20504223 0.009352724 0.015479274 -0.30378786 -0.018191786 0.11147853 0.072955325 0.26438132 -0.103871614 0.06373148 -0.2871402 -0.094047174 -0.0034358401 0.16316804 -0.038958937 -0.11234901 0.053612757 0.028342636 0.06289374 -0.11489526 0.14554636 -0.030730475 0.0031934148 -0.066242084 0.0040677316 0.0058825384 0.1319252 0.15173477 0.10868105 -0.23181657 -0.015665261 -0.07850315 -0.16174556 0.012607137 0.046445612 -0.012482718 -0.010128186 -0.03654596 -0.121391505 -0.11972646 -0.17491588 0.05576217 0.07138007 0.052549314 -0.08010673 -0.049285952 0.12942886 -0.048569806 -0.016397124 0.05857703 -0.20596085 0.1858319 -0.06453703 -0.05571444 -0.003829355 -0.041798808 -0.21336298 0.058957487 -0.017670834 -0.042853035 -0.023136493 0.09260198 -0.027623763 -0.12348077 0.003450511 0.07071005 -0.047681097 -0.015051816 -0.09837121 -0.10737732 0.10384859 -0.0069377683 -0.004386557 0.01306638 0.15687172 -0.11179264 -0.049606178 -0.0955145 -0.12581894 0.31620595 -0.055222917 0.13009064 -0.0846569 0.11983936 0.12441804 0.026705833 -0.17020811 0.034192536 -0.019629827 0.1954379 -0.1359032 -0.08341196 0.01253502 -0.013764929 -0.043760993 -0.029428553 -0.13836826 0.013248669 -0.036681555 0.07040977 0.13173687 -0.10232001 0.03965618 0.013859071 0.0012478612 0.003959193 0.017580708 0.0834919 0.09455485 0.1160605 0.1699991 0.090979554 -0.033836402 0.0152163375 0.040433485 0.05139374 0.004106394
22 0.108970396 0.14003363 -0.07337819 0.15452582 0.02707155 0.022748835 -0.117138535 0.16839635 -0.22042426 -0.14656949 -0.012342889 -0.18733828 -0.021185206 0.034447335 -0.2990783 -0.021379385 0.10856633 0.043329928 0.2419993 -0.118433066 0.04888513 -0.27587804 -0.09909117 0.00911993 0.16889796 -0.04391439 -0.137213 0.06493533 0.028309181 0.06789781 -0.103512935 0.17073247 -0.0015127722 0.013900129 -0.06460844 0.0019961232 -0.0064822785 0.13738762 0.1584582 0.12752517 -0.22415672 -0.017318426 -0.06910448 -0.15142186 0.005549109 0.040694408 -0.0062618232 -0.013972622 -0.02875158 -0.15074162 -0.12416755 -0.15969558 0.04903782 0.049434267 0.048293915 -0.085896194 -0.07871257 0.14533998 -0.034083977 -0.04215719 0.057514332 -0.21488203 0.15491275 -0.08273272 -0.04167607 -0.030367164 -0.043295193 -0.21394698 0.08801034 -0.02068971 -0.05900965 -0.040417437 0.06656525 -0.03567072 -0.10319331 0.035799343 0.043250777 -0.041535567 -0.014708418 -0.05741727 -0.12430174 0.08700405 -0.033515036 0.0011171453 0.015599583 0.14502871 -0.11243132 -0.07188494 -0.109366916 -0.11553104 0.29701757 -0.051131207 0.15918863 -0.06368767 0.09348019 0.16006105 0.019399002 -0.15220098 0.030529814 0.01716354 0.18257503 -0.15793847 -0.075301275 0.02829098 -0.015487115 -0.065157704 -0.034955207 -0.12542498 -0.015137773 0.00088842877 0.08392551 0.11429372 -0.109453104 0.0332916 -0.009602203 -0.012081975 0.005907066 0.027105378 0.07849591 0.088572 0.12579098 0.16508135 0.108230054 -0.055586293 0.0117918495 0.027590746 0.03222768 0.0014540312
19 0.07407467 0.06920528 -0.00058226415 0.03820545 -0.06039285 0.061105523 -0.10413233 0.025904609 -0.21976587 -0.05553879 -0.017742317 -0.21383658 0.06400248 -0.028293807 -0.25811413 -0.013432459 0.10046028 0.11525679 0.2678264 -0.055228043 0.078242265 -0.27033153 -0.070899665 -0.023119818 0.13076068 -0.015685113 -0.050857827 0.012214228 0.013293409 0.0506149 -0.14280228 0.05485096 -0.07824218 -0.041562527 -0.07455802 0.025961999 0.050156675 0.098073795 0.12200689 0.044257343 -0.2312784 -0.012559574 -0.09912973 -0.15687372 0.035812803 0.038487837 -0.033606477 0.004596205 -0.031775616 -0.03739158 -0.11581838 -0.18353993 0.07066988 0.12334375 0.046326656 -0.047497552 0.043787077 0.06621395 -0.090913855 0.05681515 0.08151112 -0.15967582 0.22873533 0.0034264089 -0.07558023 0.05689228 -0.014140809 -0.17352049 -0.007959199 -0.012473586 -0.008834087 0.0257465 0.14157587 -0.0012361128 -0.14143446 -0.06872785 0.11239015 -0.051339407 -0.020696416 -0.16200405 -0.058114763 0.13637088 0.057232283 -0.026043138 0.008315029 0.16537227 -0.08236646 0.00037138013 -0.053443797 -0.1367661 0.313866 -0.047189962 0.019275874 -0.11225526 0.16142462 0.026449703 0.038405355 -0.18244918 0.027426511 -0.11603721 0.18579185 -0.0632524 -0.09099724 -0.0108209 -0.01240626 0.0032856124 -0.017546412 -0.1467626 0.07920401 -0.12884028 0.03079197 0.14043622 -0.065269634 0.04983218 0.049926996 0.03896492 -0.005402724 -0.007227899 0.07143378 0.084841445 0.088620566 0.15232393 0.035174407 0.003915741 0.0135101145 0.06418385 0.07649985 0.017368846
17 0.103902824 0.15856333 -0.09825504 0.18840478 0.06910809 -0.011712856 -0.10247468 0.2202386 -0.21244207 -0.15914752 -0.0052331514 -0.14454192 -0.04999998 0.055914547 -0.26859868 -0.02596232 0.11364033 0.0006211487 0.21615551 -0.15373342 0.031811118 -0.267772 -0.10871123 0.018200584 0.16749999 -0.053344436 -0.1662699 0.0778578 0.035649996 0.059009638 -0.07991938 0.21532069 0.037569247 0.041057833 -0.07148115 -0.0041348673 -0.03053816 0.14367053 0.16292371 0.14542133 -0.20761544 -0.011859332 -0.026596932 -0.13491027 -0.016539639 0.039014243 0.008370995 -0.016341796 -0.01721095 -0.1883296 -0.1226996 -0.14757204 0.020642255 0.028187871 0.037011694 -0.08923717 -0.15203215 0.18002065 -0.0137793105 -0.08906687 0.048815746 -0.23374075 0.09779592 -0.12221611 -0.0044151596 -0.081750356 -0.052163843 -0.2290062 0.113687284 -0.018609392 -0.08779126 -0.07709175 0.026834385 -0.057011846 -0.07843108 0.07213567 0.00750394 -0.04715693 -0.020315383 -0.012717289 -0.15327634 0.055418454 -0.06650769 0.015884604 0.0328106 0.14152236 -0.11655885 -0.09813775 -0.12116267 -0.10521363 0.28672737 -0.055448208 0.21592984 -0.03958823 0.079140134 0.20455429 0.011888827 -0.13067478 0.02142757 0.071614936 0.18894964 -0.18902673 -0.07959425 0.048611503 -0.026262896 -0.08732338 -0.018230101 -0.12966402 -0.04952379 0.049427666 0.114369296 0.11209281 -0.12065559 0.014145192 -0.030425256 -0.033809755 0.024733722 0.042456996 0.08246659 0.075738356 0.1359852 0.18232228 0.14370419 -0.09305805 0.018150005 0.023423348 0.010001916 -0.008022936
16 0.07997128 0.069788665 0.004846117 0.03702807 -0.06656824 0.06430723 -0.11085997 0.027593054 -0.2292151 -0.06047977 -0.012652851 -0.2258812 0.07091231 -0.02764675 -0.27362236 -0.012354709 0.1012993 0.122704126 0.27632636 -0.04948753 0.08364321 -0.27673128 -0.07536735 -0.018382963 0.13408463 -0.014299652 -0.05164756 0.009915136 0.010201677 0.05144533 -0.14402312 0.05405909 -0.08769343 -0.040388502 -0.06814342 0.022248935 0.050697654 0.10264866 0.12502338 0.044059515 -0.2373212 -0.01621968 -0.10916093 -0.15822251 0.037318982 0.04443614 -0.036617227 0.008944785 -0.035545707 -0.0390614 -0.11961911 -0.18584874 0.077546075 0.12428185 0.047059078 -0.045835763 0.04670972 0.07033684 -0.08882331 0.0645144 0.07939594 -0.15870185 0.23599331 0.00077002746 -0.07635412 0.057220817 -0.013713257 -0.1720674 -0.010577434 -0.018045781 -0.006533429 0.027213277 0.14868085 0.0026522744 -0.14978264 -0.066138 0.11348558 -0.052115284 -0.020943953 -0.16363835 -0.051396795 0.14226076 0.060268436 -0.029834557 0.0071056588 0.17142405 -0.08549991 0.0019844451 -0.059891287 -0.13811575 0.32438117 -0.041201904 0.015172502 -0.11952516 0.1672547 0.02701129 0.038572844 -0.18257514 0.026964445 -0.116294995 0.19071408 -0.05998821 -0.091584556 -0.018950604 -0.014083361 0.0048727887 -0.020663323 -0.14457624 0.07917791 -0.13662674 0.033208944 0.14441174 -0.06977964 0.054928795 0.05510667 0.03828117 -0.0101901125 -0.0071151243 0.076388255 0.091542184 0.09175698 0.15689984 0.03488939 0.008469836 0.005865884 0.063188955 0.08120004 0.01939371
23 0.08300448 0.08172333 -0.008272215 0.055624846 -0.05674444 0.056589548 -0.10943679 0.04213993 -0.23136531 -0.075300746 -0.009618679 -0.21158956 0.058252905 -0.023634322 -0.27214977 -0.013850315 0.105301134 0.108482525 0.2747835 -0.059896883 0.077540465 -0.2734777 -0.07620938 -0.013223601 0.13973078 -0.018508019 -0.061722975 0.014023087 0.016332341 0.05179296 -0.14049448 0.06459411 -0.07603294 -0.033081792 -0.06898353 0.024673397 0.04481996 0.11176739 0.12865806 0.049477063 -0.23371668 -0.015052178 -0.100924574 -0.15652974 0.032324534 0.040447187 -0.030813951 0.0056176027 -0.039551597 -0.05318071 -0.117841244 -0.1793769 0.071550995 0.11892217 0.05148215 -0.055699497 0.027285853 0.073975675 -0.08514663 0.047194343 0.08067205 -0.16982768 0.22100823 -0.01126501 -0.071262114 0.050362892 -0.018972237 -0.18436676 0.003918175 -0.019839304 -0.012250406 0.019105548 0.13199627 -0.0008291421 -0.14352156 -0.059263993 0.1051945 -0.055060107 -0.021904344 -0.1497123 -0.062685244 0.13329546 0.049661253 -0.022087919 0.0090876985 0.16589953 -0.09097858 -0.009131889 -0.064601615 -0.13393146 0.3167695 -0.046186566 0.033921275 -0.10909338 0.15860146 0.045149352 0.036809336 -0.17851126 0.025385303 -0.09985971 0.18590634 -0.07003738 -0.09432245 -0.00663927 -0.01605731 -0.008237568 -0.024168145 -0.14518793 0.06949114 -0.12153183 0.041073274 0.13543168 -0.07446726 0.04739767 0.044996545 0.029009154 -0.0036440946 0.0028993087 0.07548514 0.09154426 0.09232307 0.16460419 0.04850057 -0.0047287014 0.009684027 0.06483494 0.075112954 0.020814078
21 0.07674255 0.07205273 0.0015304001 0.038267583 -0.06880181 0.063877776 -0.10948789 0.022505933 -0.22766422 -0.063494086 -0.016258923 -0.22678798 0.073273 -0.029785426 -0.27073443 -0.009853766 0.10554844 0.120851554 0.27917132 -0.053268317 0.083176255 -0.28222343 -0.0738058 -0.023179818 0.13665678 -0.01858062 -0.05093592 0.009964227 0.010819647 0.055396352 -0.15049876 0.056578718 -0.08781156 -0.043021504 -0.07426251 0.027131489 0.056607284 0.10225655 0.12670995 0.043900575 -0.23672241 -0.016255844 -0.11182162 -0.1605394 0.037987046 0.03854631 -0.03823445 0.006714449 -0.037936695 -0.039374325 -0.12080758 -0.18876886 0.07691618 0.1285833 0.052588604 -0.047693506 0.04547231 0.068262026 -0.09227905 0.062693335 0.08426564 -0.16288316 0.23627664 0.006058493 -0.07656184 0.059547033 -0.016066782 -0.17542607 -0.006291592 -0.013835049 -0.008302864 0.022359343 0.14517204 0.004898932 -0.14514537 -0.07270119 0.11720773 -0.05684038 -0.02200297 -0.16725692 -0.052484214 0.14207727 0.0647886 -0.029832514 0.009149254 0.16832821 -0.08699744 -0.0013678463 -0.05829364 -0.1417037 0.32099503 -0.042103477 0.016881874 -0.115730636 0.16692516 0.030170165 0.042310882 -0.18973641 0.027608287 -0.12458332 0.19328779 -0.0642717 -0.09871985 -0.014047192 -0.015053714 0.0050053857 -0.023092646 -0.15149063 0.086703256 -0.13919386 0.02795992 0.14023629 -0.06488734 0.05423146 0.055669587 0.042438284 -0.009305713 -0.0041556805 0.07757822 0.094639644 0.08986346 0.15914793 0.03776688 0.008429493 0.0102942595 0.07040879 0.07900571 0.01549679
13 0.11142738 0.13447073 -0.06460181 0.15383302 0.022037687 0.02131457 -0.11231785 0.16284657 -0.22024152 -0.1381489 -0.011358466 -0.18906924 -0.016482798 0.031620666 -0.29238585 -0.022882715 0.108685784 0.052468386 0.23987575 -0.11673232 0.048128683 -0.27531335 -0.093385026 0.0057903808 0.16474149 -0.046080254 -0.1332375 0.06771776 0.029348092 0.06578871 -0.09992069 0.1644669 -0.009011746 0.014331457 -0.06369861 -0.0001293721 -0.008260435 0.13627985 0.14716633 0.1255701 -0.21605648 -0.017524656 -0.06756501 -0.15032573 -0.0009080127 0.044166602 -0.0035076074 -0.012385886 -0.030948939 -0.15181416 -0.120470986 -0.15865916 0.047026474 0.04861315 0.04939093 -0.08224788 -0.07629575 0.14536737 -0.033428118 -0.038264304 0.051697522 -0.21544233 0.15515238 -0.08149317 -0.04343494 -0.028772006 -0.04958024 -0.21857724 0.07907779 -0.0182013 -0.05774746 -0.037606984 0.07031176 -0.03366327 -0.10668543 0.03357113 0.043620955 -0.0464336 -0.018594977 -0.06553973 -0.12033659 0.09003151 -0.030078847 0.0044729346 0.015302916 0.14963941 -0.112724535 -0.066110305 -0.10486809 -0.10942378 0.29493284 -0.050341588 0.16065766 -0.064286076 0.09623806 0.1538696 0.015943293 -0.15291187 0.032300442 0.012515549 0.18247527 -0.15464334 -0.072523825 0.024366377 -0.012095315 -0.055922866 -0.032648765 -0.12974685 -0.0129823275 0.0011271171 0.07954648 0.11872008 -0.105338044 0.0328316 -0.004749571 -0.013487037 0.0062646605 0.031878542 0.077421606 0.08472177 0.123546556 0.16586602 0.10078691 -0.048410743 0.0137435 0.028341472 0.03965936 -0.005135481
12 0.11101244 0.14604157 -0.07616928 0.15736331 0.026843285 0.015497067 -0.115127735 0.17591585 -0.22198355 -0.15158385 -0.013232876 -0.1931389 -0.024140777 0.03502238 -0.30448774 -0.022469455 0.114564404 0.044446662 0.24223606 -0.12245404 0.04751908 -0.27611366 -0.09874771 0.0015360676 0.17205544 -0.04836888 -0.13762099 0.07492112 0.026702553 0.06810648 -0.10044682 0.17535473 -0.0029198858 0.021279057 -0.06153527 -0.003650108 -0.016904945 0.14113832 0.15810724 0.12920465 -0.21932986 -0.014553639 -0.06527535 -0.14734235 6.821082e-05 0.042147107 -0.0017508343 -0.015431841 -0.025649881 -0.15937337 -0.11791692 -0.15964738 0.04849034 0.04721636 0.04699182 -0.08564216 -0.0840455 0.14826174 -0.031358503 -0.044926845 0.052951932 -0.22214374 0.15194927 -0.08841654 -0.04172664 -0.037832562 -0.045294173 -0.21722658 0.09021173 -0.017639153 -0.060816307 -0.04487586 0.05818889 -0.033068836 -0.096947156 0.042505134 0.038794465 -0.039001975 -0.017559407 -0.053957682 -0.12362963 0.08632399 -0.037147343 0.010095337 0.017596195 0.14154473 -0.113347374 -0.07585436 -0.11176884 -0.11045392 0.28811082 -0.04997715 0.17078565 -0.05851024 0.09251542 0.16455498 0.013382863 -0.15336612 0.0324708 0.026005724 0.1850717 -0.16158001 -0.068070576 0.02941994 -0.016881289 -0.06729559 -0.038044896 -0.1278838 -0.021788707 0.00993986 0.08351503 0.11719306 -0.10346177 0.029501174 -0.0103558535 -0.0117835915 0.0058577713 0.031290516 0.07571138 0.09260533 0.12714282 0.16096486 0.10460291 -0.05183542 0.014306104 0.023932403 0.036951702 0.00058325153
